<?xml version="1.0"?>
<opencv_storage>
<opencv_ml_svm>
  <format>3</format>
  <svmType>C_SVC</svmType>
  <kernel>
    <type>LINEAR</type></kernel>
  <C>1.</C>
  <term_criteria><iterations>20000</iterations></term_criteria>
  <var_count>4096</var_count>
  <class_count>2</class_count>
  <class_labels type_id="opencv-matrix">
    <rows>2</rows>
    <cols>1</cols>
    <dt>i</dt>
    <data>
      0 1</data></class_labels>
  <sv_total>1</sv_total>
  <support_vectors>
    <_>
      -2.29040652e-05 -2.29040652e-05 -2.29040652e-05 -2.29040652e-05
      -2.29040652e-05 -2.49030454e-05 -2.29040652e-05 -3.26933041e-05
      -3.46922861e-05 -3.96813230e-05 -3.37636084e-05 -2.98466421e-05
      -3.32942582e-05 -4.22574813e-05 -3.42016974e-05 -3.47348760e-05
      -4.46295126e-05 -4.46295126e-05 -3.36508238e-05 -3.49525071e-05
      -3.17453960e-05 -3.34288379e-05 -2.31232552e-05 -8.93731631e-05
      -4.74164699e-05 -3.68609035e-05 -1.53157998e-05 -1.60336476e-05
      -1.54867848e-05 -9.99200256e-06 -1.11164536e-05 -2.48791275e-05
      -2.46776235e-05 -2.83242334e-05 -1.09149496e-05 -9.57344946e-06
      -1.48336840e-05 -1.57691993e-05 -2.54304450e-05 -8.21068897e-06
      -1.54034387e-05 1.83180400e-05 -2.39497040e-05 -3.93133851e-05
      -3.90570967e-05 -6.81005113e-05 -3.12189695e-05 -1.52819193e-05
      -6.53053648e-05 -3.74093725e-05 -2.73243168e-05 -2.45155279e-05
      -1.72282962e-05 -2.07386256e-05 -2.20772254e-05 -2.20772254e-05
      -2.19374015e-05 -2.19374015e-05 1.01210699e-05 8.07630277e-05
      5.22568052e-06 -4.04871607e-05 -3.79105113e-05 -3.96924406e-05
      -1.92216448e-05 -1.92216448e-05 -1.92216448e-05 -2.29040652e-05
      -2.29040652e-05 -2.29040652e-05 -2.29040652e-05 -2.72356247e-05
      -3.90238456e-05 -3.90238456e-05 -3.90238456e-05 -4.15363465e-05
      -3.96172036e-05 -4.48774372e-05 -3.87440814e-05 -3.47348760e-05
      -4.11191832e-05 -4.46295126e-05 -3.49525071e-05 -3.49525071e-05
      -5.70153907e-06 -2.03087948e-05 -8.30485951e-05 -8.93731631e-05
      -4.74164699e-05 -4.62920179e-05 -1.53157998e-05 -1.60336476e-05
      -2.49178993e-05 -1.94231179e-05 -2.05475681e-05 -2.48791275e-05
      -1.52465091e-05 -1.45973700e-05 -1.09149496e-05 -8.91596937e-06
      -9.57344946e-06 -2.58864202e-05 -2.47125972e-05 -2.47125972e-05
      -1.18931093e-05 2.16158005e-05 -2.08851980e-05 -3.49178808e-05
      -3.35535406e-05 -7.16108334e-05 -2.22302879e-05 -1.17861337e-05
      -5.91227363e-05 -3.74093725e-05 -3.72855320e-05 -2.45155279e-05
      -1.65708170e-05 -2.07386256e-05 -2.40363861e-05 -2.20772254e-05
      -2.26552493e-05 -2.19374015e-05 3.43246174e-05 8.07630277e-05
      5.22568052e-06 -1.62836131e-05 -6.49437425e-06 -8.27630538e-06
      -2.29040652e-05 -1.92216448e-05 -1.92216448e-05 -1.92216448e-05
      -2.29040652e-05 -2.72356247e-05 -2.72356247e-05 -2.72356247e-05
      -1.98710986e-05 -3.03178167e-05 -3.60898048e-05 -3.60898048e-05
      -3.57484787e-05 -3.55139309e-05 -3.07868759e-05 -3.53335745e-05
      -3.60514241e-05 -4.24208629e-05 -4.56325579e-05 8.30840781e-06
      7.18395631e-06 -2.66393345e-05 -4.68931103e-05 -6.18728300e-05
      -2.61489022e-05 -2.43669710e-05 6.60924934e-06 -3.53971313e-06
      -2.99285034e-06 2.50193193e-06 1.37748054e-06 -2.95407881e-06
      6.47703564e-06 7.32767921e-06 3.03193087e-06 1.23516002e-05
      3.76261414e-06 -3.96137148e-06 -1.43015232e-05 -1.35836754e-05
      -1.61416447e-05 3.62550527e-05 -1.07900760e-05 -2.26445263e-05
      -3.02557819e-05 -6.28552225e-05 -1.99873157e-05 -1.24436128e-05
      -5.91227363e-05 -4.17409319e-05 -2.34020463e-05 -2.46220516e-05
      -1.65708170e-05 -2.07386256e-05 -2.40363861e-05 -2.33789069e-05
      -2.32390830e-05 -2.62689609e-05 3.43246174e-05 8.07630277e-05
      5.22568052e-06 -1.62836131e-05 -1.18922435e-06 -8.51085224e-06
      -2.26695174e-05 -2.29040652e-05 -2.29040652e-05 -2.72356247e-05
      -2.72356247e-05 -2.72356247e-05 -2.72356247e-05 -1.85295976e-05
      -2.05285778e-05 -2.06351015e-05 -3.60898048e-05 -3.60898048e-05
      -3.94308991e-05 -3.55139309e-05 -3.07868759e-05 -3.31602678e-05
      -3.84775558e-05 -3.40553452e-05 -2.86437917e-05 6.99186057e-06
      7.18395631e-06 -8.83325483e-05 -5.46141200e-05 -6.61263766e-05
      -2.50972935e-05 8.94421362e-07 5.95176971e-06 5.89140154e-06
      -2.99285034e-06 2.50193193e-06 1.37748054e-06 -2.95407881e-06
      -2.95407881e-06 -1.29962859e-06 3.03193087e-06 8.05585114e-06
      3.76261414e-06 -3.72682416e-06 -2.78754806e-06 -2.78754806e-06
      -5.34551691e-06 3.16737205e-05 -5.09350411e-06 -5.73139403e-07
      -8.33073318e-06 4.59029962e-07 1.93773371e-06 1.69343712e-05
      -1.82702443e-05 -1.56858277e-05 -2.41011116e-06 -1.58810053e-05
      -1.72282962e-05 -2.07386256e-05 -2.33789069e-05 -2.33789069e-05
      -2.39569308e-05 -2.32390830e-05 4.15372051e-05 8.07630277e-05
      5.22568052e-06 -1.09784642e-05 -1.18922435e-06 -3.20570257e-06
      -2.26695174e-05 -2.26695174e-05 -2.72356247e-05 -2.72356247e-05
      -2.72356247e-05 -2.72356247e-05 -2.78931038e-05 -2.78931038e-05
      -2.05285778e-05 -2.63005659e-05 -2.63005659e-05 -3.60898048e-05
      -3.60898048e-05 -3.24073844e-05 -2.74457852e-05 -4.25913822e-05
      -3.44619475e-05 -2.55920622e-05 -2.61798959e-05 7.06987839e-06
      5.94542689e-06 -5.29464996e-05 -3.60917911e-05 -7.87138633e-05
      -2.50972935e-05 7.31910390e-08 -4.22255744e-06 8.74425132e-06
      5.78078470e-06 1.60990476e-06 1.37748054e-06 -2.95407881e-06
      -2.95407881e-06 -1.07307433e-05 3.03193087e-06 3.45309627e-06
      2.79561641e-06 -3.96137148e-06 -3.50539608e-06 -2.78754806e-06
      -5.34551691e-06 3.16737205e-05 -2.12921914e-05 5.93923869e-06
      -3.93522760e-06 4.59029962e-07 -6.50112270e-05 1.27816320e-05
      7.95695360e-06 -1.56858277e-05 -3.12795919e-06 -3.55477496e-05
      -1.65708170e-05 -2.00811464e-05 -2.33789069e-05 -2.33789069e-05
      -2.39569308e-05 -2.75706425e-05 3.84549458e-06 7.87640456e-05
      7.23307039e-06 -1.53100227e-05 -1.42377178e-06 -3.20570257e-06
      -1.32384039e-05 -2.70010769e-05 -2.70010769e-05 -2.72356247e-05
      -2.72356247e-05 -2.78931038e-05 -2.78931038e-05 -2.78931038e-05
      -2.71185836e-05 -3.48895519e-05 -3.48895519e-05 -3.48895519e-05
      -2.65020717e-05 -3.13627534e-05 -3.11282056e-05 -3.93495029e-05
      -3.08862182e-05 -2.14551037e-05 -1.00227005e-07 4.19552134e-06
      -2.11221904e-05 -4.59684597e-05 -2.45582651e-05 -2.38238295e-06
      -1.21463454e-05 -1.05297495e-05 -5.16895352e-06 -1.08867480e-05
      1.44922501e-06 1.44922501e-06 -3.61155844e-06 -3.61155844e-06
      -3.61155844e-06 -1.07307433e-05 3.03193087e-06 2.79561641e-06
      2.79561641e-06 -3.96137148e-06 -3.44502769e-06 -2.78754806e-06
      -5.34551691e-06 3.16737205e-05 -2.12921914e-05 -9.61030946e-06
      3.95279085e-06 4.75477827e-06 -5.95076745e-05 1.74387551e-05
      1.55411781e-05 8.54267728e-06 1.88563718e-06 -1.89149614e-05
      -1.66773407e-05 -2.07386256e-05 -2.33789069e-05 -2.33789069e-05
      -2.76393512e-05 -2.75706425e-05 3.84549458e-06 6.20849096e-05
      1.05308309e-05 -1.53100227e-05 -1.42377178e-06 -3.92355059e-06
      -1.32742143e-05 -1.75699624e-05 -2.70010769e-05 -2.70010769e-05
      -2.78931038e-05 -3.64820917e-05 -2.71214249e-05 -3.64820917e-05
      -3.65886117e-05 -3.28905735e-05 -3.48895519e-05 -3.48115354e-05
      -3.48115354e-05 -3.15876678e-05 -3.15876678e-05 -4.20331744e-05
      -3.34441866e-05 -3.45686385e-05 7.96791846e-06 -3.78264735e-06
      -1.93419291e-05 -4.40954354e-05 -1.68652386e-05 -2.30527053e-06
      -2.28263980e-05 -1.02238791e-05 -3.84907844e-06 -2.03178624e-05
      -2.33593455e-05 1.44922501e-06 -3.61155844e-06 -3.61155844e-06
      -3.61155844e-06 -1.13882224e-05 2.37445124e-06 2.79561641e-06
      -1.49762070e-06 -9.22160598e-06 -3.30389184e-06 -2.78754806e-06
      -5.34551691e-06 3.16737205e-05 -1.18610769e-05 -5.92788911e-06
      -6.91497189e-06 4.75477827e-06 -3.88839435e-05 1.74387551e-05
      1.90369647e-05 -1.29691844e-05 1.88563718e-06 -1.73371463e-05
      -1.34125503e-05 -2.07386256e-05 -2.33789069e-05 -2.33789069e-05
      -2.37554268e-05 -2.75706425e-05 3.84549458e-06 6.40838844e-05
      5.93138884e-06 -1.53100227e-05 -1.42377178e-06 1.07639539e-06
      -2.18631994e-05 -2.18631994e-05 -2.61589485e-05 -3.62475439e-05
      -3.62475439e-05 -2.58960590e-05 -2.58960590e-05 -2.28218187e-06
      -1.86402012e-05 -3.28125534e-05 -3.48115354e-05 -3.48115354e-05
      -3.13861638e-05 -3.13861638e-05 -4.20331744e-05 -4.20331744e-05
      -4.20331744e-05 -1.16577557e-05 -1.30167537e-05 -3.08502640e-05
      5.65871517e-07 -4.40505210e-05 -1.67881262e-05 -1.76827270e-05
      -3.71891838e-05 -1.02238791e-05 -1.45967397e-05 -1.89979874e-05
      -2.12823488e-05 -2.13603671e-05 -1.89890161e-05 -1.89890161e-05
      -1.87875103e-05 -1.81487339e-05 -2.96988537e-06 -2.54871998e-06
      1.71244847e-05 8.11513871e-07 2.38932853e-06 -2.58604382e-06
      -3.10062092e-06 8.70159056e-06 -1.55663784e-05 -5.92788911e-06
      -2.46275395e-05 -1.17988793e-05 -3.83279148e-05 2.29423094e-05
      2.83367899e-05 -1.07262103e-05 -2.11322658e-05 -1.36547260e-05
      -1.34125503e-05 -1.12574135e-05 -2.40363861e-05 -2.33789069e-05
      -2.76393512e-05 -2.75706425e-05 -3.36709354e-06 6.40838844e-05
      5.93138884e-06 1.48623903e-05 3.57617432e-06 1.07639539e-06
      -1.22714055e-05 -1.66029658e-05 -2.25206804e-05 -2.68164276e-05
      -3.62475439e-05 -3.93133223e-06 -4.16587955e-06 1.94479981e-05
      -8.05417039e-06 1.61989234e-07 -9.19867671e-06 -3.61132152e-05
      -3.13861638e-05 -3.13861638e-05 -4.18316704e-05 -4.20331744e-05
      -4.20331744e-05 -1.16577557e-05 -1.30167537e-05 -3.22266642e-05
      -6.41622755e-05 -5.25623946e-05 -3.74258161e-05 -1.13629067e-05
      -1.47962037e-05 -1.00664447e-05 -4.93107791e-06 -2.06144050e-05
      -2.12823488e-05 -2.46581258e-05 -8.37308926e-06 -6.75541060e-06
      -6.75541060e-06 -1.67325597e-05 -1.24010003e-05 -4.54769997e-06
      4.23079928e-06 -1.88862687e-05 -1.75430014e-05 -1.24852531e-05
      -1.75269925e-05 -1.84085684e-06 -2.05616361e-05 -2.69278153e-05
      -2.25841468e-05 -2.71763365e-05 -1.65977344e-05 -5.49510405e-05
      3.43486363e-06 -3.51455092e-05 -5.18622619e-05 -4.53734319e-05
      -4.37956187e-05 -3.57169047e-05 -3.89081433e-05 -4.58659379e-05
      -5.18973393e-05 -4.76985733e-05 -4.32040433e-05 7.24999654e-06
      -1.85281042e-05 -5.89883803e-06 -2.08833189e-05 -2.33830979e-05
      -8.58898602e-06 -1.29288856e-05 -1.72604450e-05 -2.25206804e-05
      -2.68164276e-05 -2.39475066e-05 3.84357827e-06 1.36760100e-05
      1.36760100e-05 1.37540273e-05 1.61989234e-07 -1.13969247e-06
      -7.77228524e-06 -3.13861638e-05 -4.18316704e-05 -4.18316704e-05
      -1.16577557e-05 -1.16577557e-05 2.11566348e-05 -7.22815366e-06
      -5.88571238e-05 -7.09157248e-05 -3.94604358e-05 -1.97173449e-05
      -1.80939642e-05 -1.44886562e-05 -8.93303604e-06 -1.96164165e-05
      -1.36797935e-05 -1.20621153e-05 -6.75541060e-06 -3.12149023e-05
      -3.04970545e-05 -3.59914520e-05 -3.79904341e-05 -2.17632023e-05
      -2.17632023e-05 -1.84029686e-05 -1.68251536e-05 -1.61676744e-05
      -1.50432224e-05 -3.03950628e-06 -1.98753423e-05 -1.58270977e-05
      -1.00672560e-05 -8.02441809e-06 -1.26977902e-05 -6.15921163e-05
      4.85103783e-06 -5.42252747e-06 -4.46056911e-05 -4.70568739e-05
      -4.37956187e-05 -4.13823727e-05 -3.69356821e-05 -3.62782048e-05
      -3.80140846e-05 -4.76985733e-05 -4.32040433e-05 9.24897631e-06
      -1.85281042e-05 -1.02303975e-05 -2.20077691e-05 3.77763149e-06
      -9.24646520e-06 -9.24646520e-06 -1.29288856e-05 -1.29288856e-05
      -1.19346496e-05 -1.02206432e-05 -1.95193516e-05 2.16854678e-05
      1.41138125e-05 1.41138125e-05 2.18158530e-05 2.53175403e-05
      3.58736088e-06 -7.77228524e-06 -1.82177901e-05 -4.18316704e-05
      -1.14562508e-05 -1.49988473e-05 -3.83090737e-05 -2.99371659e-05
      -7.54946159e-05 -5.26444383e-05 -7.31701439e-05 -4.72186548e-05
      -2.66829484e-05 -3.40136212e-05 -2.31579033e-05 -2.11800179e-05
      -3.05435242e-05 -2.80597542e-05 -2.80132845e-05 -2.80132845e-05
      -3.15236139e-05 -3.74583906e-05 -3.74583906e-05 -2.89559503e-05
      -2.54456227e-05 -1.29081855e-05 -1.31427332e-05 -1.61676744e-05
      -1.50432224e-05 -3.03950628e-06 -2.35577627e-05 -1.56255937e-05
      -1.13908773e-05 3.21975972e-06 -1.28178981e-05 -8.06510707e-06
      1.29710106e-05 7.09436335e-06 -1.59228366e-05 -4.47427847e-05
      -3.85806925e-05 -3.69261397e-05 -3.23730346e-05 -3.41993255e-05
      -3.49171714e-05 -5.97349390e-05 -3.98629491e-05 5.73864736e-06
      -1.85281042e-05 -1.02303975e-05 3.83308452e-06 3.77763149e-06
      -1.25875576e-05 -1.25875576e-05 -1.25875576e-05 -1.62699780e-05
      -5.68394717e-06 -1.31239321e-05 -1.47990449e-05 -5.01855357e-06
      -5.01855357e-06 1.68081460e-05 1.88345457e-05 2.36396172e-05
      2.65429062e-05 2.19764497e-05 -2.17934303e-05 8.81653523e-06
      8.89364765e-06 2.16697990e-05 -8.56582665e-06 -4.39947471e-05
      -9.27206347e-05 -6.36274781e-05 -3.41719860e-05 -6.16450270e-05
      -3.23188324e-05 -2.04810585e-05 -2.10587932e-05 -1.86962479e-05
      -2.22065773e-05 -3.09126044e-05 -3.20370564e-05 -1.93916276e-05
      -2.88227420e-05 -3.31626434e-05 -3.39480612e-05 -2.97771821e-05
      -2.17632023e-05 -1.81684209e-05 -1.31427332e-05 -1.31427332e-05
      -1.50432224e-05 -3.03950628e-06 -2.35577627e-05 -2.19561334e-05
      -1.13908773e-05 3.21975972e-06 -9.45526335e-06 -8.06510707e-06
      1.52159073e-05 1.65956917e-05 -3.09329262e-05 -3.19104074e-05
      -2.99637468e-05 -2.14515076e-05 -3.09568604e-05 -3.09568604e-05
      -3.23431850e-05 -4.62472599e-05 -3.57070603e-05 3.06829315e-05
      8.41515975e-06 1.67128655e-05 2.94170277e-05 2.82371238e-05
      1.16838000e-05 -1.19300776e-05 -1.25875576e-05 -2.10718554e-05
      -1.41682449e-05 4.58214259e-07 -1.04674855e-05 8.70830900e-06
      -5.01855357e-06 -6.32023512e-06 2.53971320e-05 3.95657116e-05
      3.22286032e-05 3.22286032e-05 -6.57309101e-06 1.47533201e-05
      -6.97685982e-06 2.67680912e-06 -1.26795530e-05 -5.26317817e-05
      -6.77138451e-05 -4.23201018e-05 -2.59626704e-05 -5.73788056e-05
      -2.39913879e-05 -2.06936274e-05 -2.58889977e-05 -2.15490963e-05
      -2.15490963e-05 -2.45376523e-05 -2.56621042e-05 -1.15497387e-05
      -1.15497387e-05 -1.72311393e-05 -2.46632735e-05 -2.01853873e-05
      -3.03521865e-05 -1.81684209e-05 -2.20853872e-05 -1.68251536e-05
      -1.50432224e-05 1.29205318e-06 -2.35577627e-05 -2.56385538e-05
      -1.13908773e-05 3.21975972e-06 -1.56724491e-06 -8.06510707e-06
      -3.88754306e-05 3.51037816e-05 -2.25855129e-05 -2.61491077e-05
      -2.56418953e-05 -2.14515076e-05 -2.23399129e-05 -2.23399129e-05
      -2.35247335e-05 -4.33143214e-06 -3.57070603e-05 -7.80596281e-07
      4.52618360e-06 8.15866879e-05 3.21925218e-05 3.21370680e-05
      1.16838000e-05 -2.54451807e-05 -2.54451807e-05 -1.98464913e-05
      -1.04858245e-05 -8.02608338e-06 -5.10256359e-06 2.16288536e-05
      -7.16219756e-06 -1.27596277e-05 -1.74636880e-05 -8.33472950e-06
      1.51062177e-05 1.51062177e-05 -4.05919582e-06 2.63162219e-05
      5.44622053e-05 4.02427358e-05 -8.86112502e-06 -2.04703883e-05
      -6.07328220e-05 -4.83955082e-05 -2.59626704e-05 -3.15379511e-05
      -2.06936274e-05 -2.06936274e-05 -2.15490963e-05 -1.95057055e-05
      -1.51741460e-05 -2.45376523e-05 -2.10273229e-05 -2.41507551e-05
      -2.42287715e-05 -1.61066873e-05 -1.61066873e-05 -1.41077080e-05
      -1.96717519e-05 -1.70439689e-05 -2.03034579e-05 -1.50432224e-05
      -1.50432224e-05 1.29205318e-06 -2.35577627e-05 -2.19561334e-05
      -1.13908773e-05 4.34421099e-06 -2.76665241e-06 -8.06510707e-06
      -1.56131373e-05 4.15142167e-05 -2.11526967e-05 -5.33568200e-05
      -2.52287718e-05 -2.14515076e-05 -2.23399129e-05 2.11957899e-06
      9.34759441e-07 4.28551402e-06 -1.75023797e-05 7.83635005e-06
      4.62253593e-05 7.62815398e-05 3.21925218e-05 3.21370680e-05
      -3.31610718e-05 -7.02900506e-05 -7.02900506e-05 -6.81883248e-05
      -3.58672005e-05 -3.37292731e-05 -2.58796354e-05 -6.05470132e-06
      -1.26166178e-05 -4.13231965e-06 -8.03257444e-06 -1.74636880e-05
      -8.17959972e-06 -1.88596532e-05 3.87786386e-05 7.65430159e-05
      4.06805375e-05 2.55377236e-05 5.98684528e-06 5.55554016e-06
      -2.49764980e-05 -2.14189949e-05 -2.48382185e-05 -2.38927332e-05
      -1.63537279e-05 -1.81858304e-05 -1.95057055e-05 -1.18115104e-05
      -1.51741460e-05 -1.16638166e-05 -1.36627968e-05 -2.30263031e-05
      -2.30263031e-05 -2.67867417e-05 -1.61066873e-05 -1.61066873e-05
      -1.90142728e-05 -1.11262543e-05 -1.48086747e-05 -1.48086747e-05
      -6.45423688e-06 1.29205318e-06 -1.92262032e-05 -2.19561334e-05
      -4.17963929e-06 4.34421099e-06 2.50496532e-06 3.81738005e-07
      -2.69994393e-06 3.71826573e-05 -1.76569101e-05 -4.78316724e-05
      -2.66957104e-05 -1.71651409e-05 -1.89772782e-05 2.93287911e-07
      -1.54901136e-06 1.08389509e-06 -4.60869433e-06 -5.37033793e-06
      4.37415874e-05 7.74147702e-05 2.24363339e-05 3.69503687e-05
      -8.14555005e-06 -4.14987735e-05 -8.97484279e-05 -1.11172114e-04
      -1.07387554e-04 -9.88473257e-05 -8.22127331e-05 -5.93628574e-05
      -1.09131015e-05 4.55259124e-06 4.55259124e-06 -2.58142995e-06
      1.44522064e-05 4.93549760e-06 3.53109172e-05 7.82706047e-05
      5.72621575e-05 1.34981656e-05 1.44961532e-05 9.33129741e-06
      -2.12007417e-05 7.24307938e-07 2.35637490e-05 1.02219228e-05
      -1.01279747e-05 -1.21162366e-05 -2.17039724e-05 -2.17039724e-05
      -8.60590717e-06 -1.06048874e-05 -1.06048874e-05 -2.48290762e-05
      -1.99683946e-05 -1.53193578e-05 -8.73484714e-06 -6.01801958e-06
      -1.09245848e-05 -3.03656634e-06 -3.03656634e-06 -6.71898670e-06
      4.11297242e-06 1.16247147e-05 -6.65286370e-06 -1.09743332e-05
      8.24160816e-06 1.51242084e-05 1.06258776e-05 -9.30324404e-06
      2.02710953e-06 -2.55375726e-05 2.90007961e-06 -2.19745125e-05
      -2.44524272e-05 -1.45087370e-05 9.76888896e-06 5.02034118e-06
      1.76186791e-06 6.36723507e-06 -1.29781517e-06 7.52827646e-06
      1.06624384e-05 8.07256438e-05 2.48278611e-05 9.69334178e-06
      -7.90385275e-06 -4.12570771e-05 -4.00317113e-05 -6.16970938e-05
      -5.45714465e-05 -4.57895185e-05 -5.14549829e-05 -3.16380329e-06
      -2.45690480e-05 -2.36258638e-05 -4.67842074e-05 -4.85486562e-05
      -4.21610239e-05 -1.41509126e-05 2.75442671e-05 5.91967946e-05
      -1.31103052e-05 1.54806876e-05 4.11140390e-05 2.07638568e-05
      2.03277409e-06 1.36894723e-05 4.15584836e-05 5.06990218e-05
      4.45163932e-05 1.64663925e-05 -1.87342011e-05 -1.85216322e-05
      -1.52238717e-05 -1.54584195e-05 -1.52238717e-05 -2.45873780e-05
      -2.45873780e-05 -2.25883978e-05 -2.26664160e-05 -2.39862788e-06
      5.62193520e-07 -1.38773643e-07 -1.38773643e-07 8.45021168e-06
      -4.81994357e-06 2.92634627e-06 -1.55929301e-05 -8.56223051e-06
      1.27060694e-05 1.72030868e-05 2.38683333e-05 -8.96357324e-06
      -1.87283547e-06 -1.93822325e-06 9.81510766e-06 -1.98803591e-05
      -2.56269050e-05 -2.58686014e-05 1.38934483e-05 3.93248001e-07
      -4.81168627e-06 -1.53186295e-06 -9.91476099e-06 -9.91476099e-06
      -5.16709588e-06 4.17332813e-05 1.62109154e-05 1.07639539e-06
      -7.90385275e-06 -3.79159865e-05 -3.42068488e-05 -5.56305349e-05
      -4.78556249e-05 -3.83937877e-05 -4.40592521e-05 -1.32366331e-05
      -1.32366331e-05 -1.05919053e-05 -1.42743256e-05 -1.36119306e-05
      -9.50865888e-06 1.11961072e-05 7.55777946e-05 -1.17842819e-06
      -1.63181139e-05 -1.96158744e-05 -8.25637107e-06 -3.71562819e-05
      -2.63204197e-06 3.43797001e-05 5.59407854e-05 -2.70788860e-05
      5.21958282e-05 4.58760042e-05 3.97986005e-05 3.62662904e-05
      -9.07776575e-06 -9.07776575e-06 -8.84321889e-06 -1.50258466e-05
      -1.94295517e-05 -1.61317912e-05 -1.62098095e-05 5.62193520e-07
      5.62193520e-07 8.45021168e-06 8.45021168e-06 -1.13752333e-06
      -1.13752333e-06 2.92634627e-06 3.78409277e-05 -1.38640798e-05
      3.11833446e-06 2.56651056e-05 1.86121579e-05 -2.25541171e-05
      -1.56820115e-05 -1.30342796e-05 -8.00818498e-07 -1.50009473e-05
      -3.07335213e-05 -6.51572554e-06 5.27650172e-06 -2.64231687e-07
      -4.81168627e-06 -2.06319001e-07 -5.79249127e-06 -9.91476099e-06
      4.42063947e-06 -2.17243651e-05 1.69287632e-05 -2.25286257e-07
      -2.07898961e-06 -3.54322146e-05 -3.27906746e-05 -5.42143607e-05
      -3.43267202e-05 -2.97768402e-05 -3.54423064e-05 -1.31595207e-05
      -8.43246653e-06 -3.28919596e-05 -9.27203018e-06 -9.27203018e-06
      2.20686361e-05 6.21420695e-05 3.01785731e-05 7.44887939e-06
      -3.00991524e-05 -1.86246452e-05 -2.75549010e-05 -1.47390438e-05
      -2.66305633e-05 2.91364486e-05 4.39581709e-06 -2.18775449e-06
      -7.22074356e-06 1.85429981e-05 1.09442126e-05 7.64645210e-06
      1.08418208e-05 -1.25705528e-05 -3.58120815e-05 -3.58120815e-05
      -4.16652583e-05 1.06441476e-05 1.06441476e-05 2.12783161e-05
      3.52561292e-05 3.52561292e-05 1.81286250e-05 8.54089012e-06
      2.35826292e-06 1.41558921e-05 6.44479296e-05 1.44402775e-05
      2.44165767e-05 2.56651056e-05 1.11196623e-05 -2.04599619e-05
      -7.07614436e-06 -1.30342796e-05 -8.00818498e-07 1.04116525e-05
      -2.45508927e-05 -6.40920234e-06 5.68962423e-06 4.55865393e-06
      -4.81168627e-06 -2.06319001e-07 -9.13358326e-06 -7.87136923e-06
      1.97980953e-05 5.13210180e-05 -3.85891917e-06 3.03426204e-05
      -3.14658632e-06 -3.64998123e-05 -3.66011918e-05 -5.75870727e-05
      -4.67541795e-05 -4.40066515e-06 -3.47307432e-05 -1.10397514e-05
      -3.08787130e-05 -2.95588397e-05 -2.95588397e-05 -1.92537427e-05
      3.34217293e-05 9.87126987e-05 3.66764507e-05 -7.71719169e-06
      -9.13859003e-06 -9.37313689e-06 -1.50439046e-05 -1.85542340e-05
      -3.01103282e-05 3.90329587e-05 2.68179474e-06 -2.47854350e-05
      -4.35071743e-05 4.27211853e-06 9.04335502e-06 5.18707384e-06
      9.91887373e-06 2.48673950e-06 -1.02358968e-06 -1.52063531e-05
      -4.63000397e-05 -4.63000397e-05 -4.63000397e-05 -3.67903231e-05
      -3.23681124e-05 -2.09697628e-05 -1.02897102e-05 3.56352903e-05
      2.79696869e-05 3.47166097e-05 7.06305582e-05 2.43053255e-05
      2.72090583e-05 3.78887016e-05 1.82078911e-05 1.03615357e-05
      -2.08642746e-06 -2.92246950e-05 -3.88068911e-05 1.01237420e-05
      -3.19791907e-05 -1.57552404e-05 -3.87782052e-07 -5.02908142e-06
      7.93921970e-07 -3.54741087e-06 -7.87897079e-06 -7.87136923e-06
      2.18414880e-05 1.69743798e-05 -9.88191732e-06 3.03426204e-05
      -1.81435189e-05 -2.66575007e-05 -2.72405250e-05 -5.56564919e-05
      -4.81703537e-05 -1.57605300e-05 -1.54074060e-05 -1.63458189e-05
      -4.08053093e-05 -3.02921344e-05 -2.92868626e-05 -2.92868626e-05
      4.67784084e-05 7.20416574e-05 3.86440261e-05 -6.37683388e-06
      -7.33132524e-08 -5.87210479e-06 -9.38243375e-06 -7.13946065e-06
      -1.63076784e-05 -4.93999469e-05 1.11726131e-05 -2.91236211e-05
      -3.95437673e-05 -3.18766397e-05 9.09932533e-06 3.96395899e-06
      2.84558860e-06 2.76847618e-06 8.68926145e-06 2.22043655e-05
      2.33288174e-05 -9.64856736e-06 -3.13787496e-05 -2.17910128e-05
      -1.85712706e-05 -8.60437376e-06 -1.10343772e-05 -4.26279303e-06
      6.45485197e-05 6.19956263e-05 6.79137302e-05 2.15884975e-05
      3.33916869e-05 2.92717559e-05 2.62228332e-05 2.50528847e-05
      1.41561122e-05 -2.02811152e-05 -4.46347294e-05 -4.25050621e-06
      -2.86175805e-06 -1.00897751e-05 -3.87782052e-07 8.48210493e-06
      4.09168206e-06 -3.54741087e-06 -7.87897079e-06 -7.87136923e-06
      -2.36206029e-06 1.69743798e-05 -9.16406952e-06 -1.03378925e-05
      -2.81766388e-05 -3.79159865e-05 -3.72736467e-05 -4.19733842e-05
      -4.74874760e-05 -1.50776523e-05 -1.60512718e-05 -7.04599415e-06
      -2.58400214e-05 -2.51856654e-05 -1.99870392e-05 4.88217993e-05
      8.27217082e-05 8.58400654e-06 -2.27517667e-05 -2.67464802e-05
      5.85208045e-06 -8.88936665e-06 -2.19184358e-06 -2.19184358e-06
      1.77707316e-05 -3.01695172e-06 -5.09153178e-05 -1.18627231e-05
      -2.01782386e-05 -4.44729703e-05 -4.44729703e-05 -1.82317399e-05
      -1.91974668e-05 8.76637387e-06 9.89082491e-06 9.81371250e-06
      9.81371250e-06 4.50206443e-07 1.90266237e-05 -1.28949432e-06
      1.43044881e-05 -5.13699297e-06 -1.47247283e-05 -5.34345986e-07
      1.58075964e-05 1.28479924e-05 2.80421664e-05 3.53853393e-05
      3.58897232e-05 2.92717559e-05 2.62228332e-05 4.53095490e-05
      2.58753953e-05 -4.49188747e-07 -3.96053038e-05 -3.63743857e-06
      3.19417586e-06 -1.21331677e-05 -2.43117415e-06 6.68958955e-06
      2.21752725e-06 -4.47228103e-06 -9.92236255e-06 -1.32558534e-05
      -4.40545227e-06 1.42131394e-05 5.35757317e-05 -1.03378925e-05
      2.52572208e-05 -2.44008806e-05 -3.84990090e-05 -4.19733842e-05
      -4.74874760e-05 -1.50776523e-05 -1.61283842e-05 -1.13242195e-05
      -2.59465451e-05 -1.75833320e-05 -1.78371247e-05 8.42570007e-05
      9.39533638e-05 1.65179008e-05 -2.28825975e-05 -1.21029170e-05
      -2.22717754e-05 -1.05745257e-05 -1.43401749e-05 -1.42336521e-05
      1.09891571e-05 2.05768920e-05 -5.15592546e-05 -7.17335424e-05
      -1.81419102e-06 -1.69344530e-05 -2.99775384e-05 -3.47759815e-05
      1.07468225e-06 -1.23656937e-05 -1.23656937e-05 1.81616597e-05
      1.81616597e-05 1.80845473e-05 2.03876534e-05 2.24042815e-05
      1.88819595e-05 1.03559405e-05 7.87080444e-06 -1.88079084e-05
      1.38443293e-05 2.42736751e-05 3.84698615e-05 3.47083587e-05
      3.47652713e-05 2.28072331e-05 2.30549886e-05 4.41850971e-05
      2.59243898e-05 5.50175912e-07 -2.40389727e-05 -7.59628165e-06
      3.59940623e-06 -6.62961338e-06 -1.21331677e-05 6.68958955e-06
      2.21752725e-06 -1.10964606e-06 -9.92236255e-06 -1.11769750e-05
      -2.05007564e-05 5.87610020e-06 1.71857009e-05 5.31197547e-05
      2.52572208e-05 -2.44008806e-05 -3.80612073e-05 -2.94987349e-05
      -3.84987943e-05 -6.08897017e-06 -2.41265002e-06 -3.02175213e-05
      -3.03240449e-05 -1.82322365e-05 -2.98339569e-06 8.95327248e-05
      2.51545625e-05 -2.19543108e-05 -1.81375181e-05 -3.22237065e-05
      -3.07671944e-05 -4.21991717e-05 -4.21991717e-05 2.82929182e-06
      5.21716902e-06 1.46033999e-05 1.87391834e-05 -7.09373053e-05
      -1.01640890e-05 -1.97518239e-05 -1.09149587e-05 -2.12035138e-05
      -1.52657612e-05 1.05750923e-05 1.04801111e-05 2.70520059e-06
      1.27880264e-06 3.32059280e-05 5.13147315e-05 3.85863386e-05
      3.87878426e-05 3.63027066e-05 3.29269278e-05 -1.88134254e-06
      1.16337615e-05 2.27080163e-05 4.04601597e-05 2.71796016e-05
      2.79937703e-05 1.95094726e-05 1.19333863e-05 4.28787098e-05
      2.16440567e-05 2.43816385e-06 -2.36011692e-05 -7.48975845e-06
      4.05471255e-05 -4.46985467e-07 -2.54543215e-06 7.15656097e-06
      2.63064953e-06 -1.10964606e-06 -7.67938946e-06 -1.11769750e-05
      -1.97829086e-05 -1.72029977e-05 1.71857009e-05 1.73872049e-05
      2.52572208e-05 -2.44008806e-05 -3.80612073e-05 -3.07240989e-05
      -3.62558203e-05 -3.84599707e-06 -1.69676738e-07 -2.45520569e-05
      -3.02175213e-05 -1.82322365e-05 3.57364152e-05 7.79713737e-05
      -6.58728467e-08 -2.32165239e-05 -2.74566937e-05 -5.88117873e-05
      -4.64629229e-05 -4.85418022e-05 -4.84637822e-05 -5.55641054e-06
      1.72558501e-07 3.03291617e-05 3.09774550e-05 2.71835870e-05
      -5.84558620e-05 -4.58594832e-06 1.56255301e-05 1.56298429e-05
      -4.80796189e-06 -1.18068874e-05 1.27080102e-05 1.59113406e-05
      9.97875486e-06 1.62862525e-05 1.62862525e-05 3.01791515e-05
      3.42905878e-05 3.61012026e-05 2.17325360e-05 2.17325360e-05
      -1.88134254e-06 2.58491455e-05 4.82345022e-05 2.36692722e-05
      2.79937703e-05 3.91962603e-05 1.26512341e-05 3.95376155e-05
      1.83029642e-05 -9.65642130e-07 -2.06180976e-05 -4.13740781e-06
      4.41690499e-05 2.10494221e-07 -1.21331677e-05 3.81546897e-06
      1.97316990e-06 5.89994761e-06 -4.31675426e-06 -9.20451475e-06
      -2.31240010e-05 -1.83274478e-05 1.71857009e-05 1.73872049e-05
      2.52572208e-05 -2.44008806e-05 -3.58182333e-05 -2.84811249e-05
      -4.08222768e-05 -7.18708907e-06 -3.51076869e-06 -2.79702617e-05
      -3.64821353e-05 -3.01623131e-05 5.61158995e-05 7.89653786e-05
      1.72551390e-05 -1.25133729e-05 -1.58011462e-05 -2.81619341e-05
      -3.12970478e-05 -3.33759272e-05 -2.82247147e-05 -9.81199355e-06
      7.22234927e-06 1.01405085e-05 1.56916340e-05 1.86584857e-05
      4.43480021e-05 -3.57857025e-05 1.27010908e-05 9.19076228e-06
      7.85887369e-06 -4.96261100e-06 -1.12885127e-05 9.29210637e-06
      1.13710903e-05 2.42565857e-05 1.99281876e-05 1.15635166e-05
      -9.71699228e-06 1.76577378e-05 1.73151584e-05 2.57214379e-05
      2.68479271e-05 3.32139934e-05 3.47194000e-05 4.41505144e-05
      4.69314691e-05 3.49876063e-05 9.14090469e-06 3.67451357e-05
      2.11759489e-05 4.59330022e-06 -1.73575500e-05 1.50806875e-06
      5.67110183e-05 2.49025616e-05 -9.26989378e-06 2.21486698e-06
      2.63064953e-06 2.80274071e-06 -5.44120530e-06 -6.96154120e-06
      -2.42484530e-05 -1.83274478e-05 -1.85619956e-05 -1.40289321e-05
      2.52572208e-05 -2.44008806e-05 -3.58125690e-05 -3.18222192e-05
      -3.46396519e-05 -3.68540009e-06 3.06612105e-06 -2.46911313e-05
      -2.46140189e-05 3.91037020e-06 4.85899618e-05 4.28179737e-05
      7.07690106e-06 -1.50267488e-05 -1.99310289e-05 -8.42166810e-06
      -1.04617375e-05 -1.62230353e-05 -1.40497268e-05 5.36395873e-06
      2.19423255e-05 2.20734910e-05 2.90701119e-05 3.38695609e-05
      3.32883828e-05 1.38032183e-05 -1.91180297e-05 1.39641998e-05
      6.04605339e-06 -1.76550145e-06 -1.00633506e-05 -9.37006007e-06
      1.47686078e-05 2.43563427e-05 2.05906945e-05 1.17729442e-05
      -4.99043335e-06 -6.52161589e-06 -5.50368759e-06 2.23115203e-05
      2.25130225e-05 3.24946959e-05 6.82807367e-05 7.02797188e-05
      3.61120219e-05 3.80160564e-05 1.21693556e-05 4.31203407e-05
      -2.46443483e-06 5.21616676e-06 -1.79935359e-05 -6.43772637e-06
      -2.00857703e-05 -2.95643395e-06 -8.75273145e-06 2.87234661e-06
      2.63064953e-06 2.80274071e-06 -1.01899400e-06 -9.92236255e-06
      -2.31240010e-05 -2.11852403e-05 -1.85619956e-05 -2.36166670e-05
      1.30854451e-05 -3.63309591e-05 -4.42563323e-05 -4.08490050e-05
      -2.80627610e-05 1.58980811e-06 -1.45700369e-06 -2.46911313e-05
      -1.91561649e-05 9.32948114e-06 4.83823496e-05 4.81478019e-05
      1.25347542e-05 -2.02869833e-05 -1.84083310e-05 -1.89772345e-05
      -1.89772345e-05 -1.19708484e-05 -1.40497268e-05 1.06699954e-05
      2.19042540e-05 2.18389432e-05 2.88355641e-05 3.93004775e-05
      3.47211171e-05 2.19669055e-05 -7.14265570e-06 -1.79038816e-05
      9.72233829e-06 7.19754644e-06 7.19754644e-06 -1.81247487e-05
      -4.58177328e-06 1.69082741e-05 1.76261219e-05 2.29490706e-05
      1.93104302e-06 3.17385525e-06 1.46640161e-06 3.35593745e-06
      -2.28102226e-06 3.72334543e-05 5.54757535e-05 7.08532098e-05
      6.01928732e-05 3.27558191e-05 6.90912020e-06 2.64857517e-05
      4.99850603e-06 8.33959803e-06 -4.72752345e-06 -3.34458349e-07
      -2.96912385e-05 1.26961140e-05 -1.23873169e-05 4.86557155e-06
      2.63064953e-06 6.31306966e-06 -1.94194104e-06 -6.55972735e-06
      -7.66664562e-06 -2.07786361e-05 -2.38181710e-05 -2.36166670e-05
      1.30854451e-05 -3.63309591e-05 -4.76030909e-05 -2.56831299e-05
      -2.37735094e-05 7.04766171e-06 4.00084991e-06 -2.04586431e-05
      -1.98740145e-05 8.19205638e-07 5.38132663e-05 5.38132663e-05
      5.02589774e-06 -2.41027301e-05 -3.75378695e-05 -2.89209238e-05
      -1.89772345e-05 -8.62975594e-06 -1.09101384e-05 1.22385009e-05
      2.95755417e-05 3.13119272e-05 4.17768424e-05 4.67852151e-05
      1.98399630e-05 1.96707260e-05 2.76022311e-05 -1.24412127e-05
      -5.76158527e-05 -2.23356801e-06 -2.23356801e-06 -3.84359282e-06
      -2.95904351e-06 -6.55587792e-06 2.40549580e-05 1.41178816e-05
      1.38964542e-05 1.67167145e-05 1.57225259e-05 1.76149824e-05
      1.38705254e-05 1.95359898e-05 4.84024749e-05 4.30095897e-05
      6.05981040e-05 5.06976321e-05 2.86067352e-05 2.03334912e-05
      -1.56391852e-05 -7.03785872e-06 7.47794365e-06 -8.65201218e-06
      -9.26901430e-06 5.21642796e-05 6.08639584e-06 4.86557155e-06
      -6.37982396e-07 6.31306966e-06 1.98151042e-06 -4.38641837e-06
      -6.41203314e-06 -3.12562770e-05 -3.14908211e-05 -2.69577595e-05
      1.30854451e-05 -3.63309591e-05 -4.76030909e-05 -3.29326976e-05
      -1.83156553e-05 3.31209867e-06 4.00084991e-06 -2.04586431e-05
      -2.04586431e-05 1.53705366e-06 5.58122483e-05 5.58122483e-05
      -2.34337335e-07 -3.89540437e-05 -3.89540437e-05 -2.03319396e-05
      -1.07978658e-05 -1.51539662e-05 1.61360003e-05 3.45761800e-05
      3.38712889e-05 3.74452829e-05 3.78876939e-05 5.94386256e-06
      5.94386256e-06 1.45328477e-05 1.58478288e-05 1.03918183e-05
      -2.12258219e-05 -6.12982694e-05 -8.83759276e-05 -4.95995528e-06
      2.79796905e-06 1.03431685e-05 5.03801857e-06 1.86179077e-05
      2.23973111e-05 1.67623548e-05 2.81924495e-05 2.77546478e-05
      2.61267451e-05 2.20029870e-05 1.90614610e-05 3.17640515e-05
      4.00138051e-05 3.01133314e-05 2.78815236e-07 -8.07154265e-06
      -2.45697502e-05 -2.12286577e-05 -1.45262050e-06 3.42044837e-06
      3.87923865e-06 2.36956130e-05 1.40791990e-05 1.49440857e-05
      1.77365673e-05 2.63064953e-06 -2.61462873e-07 -6.74585124e-07
      -5.53750442e-06 -1.58788189e-05 -2.71592635e-05 -2.69577595e-05
      1.30854451e-05 -3.63309591e-05 -4.21452351e-05 -3.29326976e-05
      -3.10230789e-05 -3.46566793e-08 3.56304713e-06 -2.08964448e-05
      -2.39689725e-05 3.11689206e-07 4.11539077e-05 4.09642780e-05
      -5.35007393e-06 -3.12174452e-05 -2.80037966e-05 -1.91853469e-05
      -1.09479779e-05 -1.49194184e-05 -7.50275558e-06 3.90844980e-05
      3.38242644e-05 4.73952969e-05 1.45328477e-05 1.45328477e-05
      1.08504282e-05 1.21654093e-05 1.10409574e-05 7.50725849e-06
      7.50725849e-06 -1.22245353e-06 -2.21282426e-05 -4.75552079e-05
      3.55210227e-06 1.51596023e-05 1.33273643e-05 6.86155408e-06
      2.52367699e-05 3.64315056e-05 2.70679993e-05 2.68664953e-05
      3.22635242e-05 2.53847084e-05 2.50395715e-05 7.04212516e-06
      2.41103262e-05 1.65279616e-05 -1.22757301e-05 -2.01111725e-05
      -3.43635693e-05 -3.37832025e-05 -1.20081859e-05 2.30819822e-07
      1.14171489e-05 2.69933735e-05 3.76930766e-05 1.88610175e-05
      1.77365673e-05 2.87234661e-06 4.07009657e-06 -6.74585124e-07
      -8.26334053e-06 -1.58788189e-05 -1.61133667e-05 -2.69577595e-05
      -1.19300776e-05 1.71028987e-05 -4.21452351e-05 -3.21959960e-05
      -3.83111910e-05 -3.46566793e-08 2.16291795e-07 -2.08964448e-05
      -1.31598481e-05 -2.64608443e-05 4.24049067e-05 4.89354206e-05
      -2.22011863e-06 -2.91854230e-05 -2.77692507e-05 -2.11512834e-05
      -1.62880497e-05 -1.52990069e-05 -4.77208033e-08 1.88669765e-05
      3.12823431e-05 2.37624590e-05 1.45328477e-05 1.08504282e-05
      1.16984374e-05 1.45217700e-05 9.33122647e-06 9.33122647e-06
      9.33122647e-06 1.54191566e-05 7.71611212e-06 -6.24222139e-06
      -2.95301288e-05 4.91110086e-06 -1.35556556e-05 1.25429542e-05
      1.41321798e-05 3.28424649e-05 1.82775093e-05 2.37810636e-05
      2.37810636e-05 2.70032906e-05 2.34339823e-05 1.23802529e-05
      2.77650142e-05 7.09684628e-06 -8.92897515e-06 -3.31791052e-05
      -3.80376514e-05 -3.37060919e-05 -1.39300537e-05 1.20824770e-05
      2.02143947e-05 4.03392442e-05 5.61830857e-05 1.50999549e-05
      1.70790863e-05 2.21486698e-06 3.41261693e-06 -9.84919825e-06
      -1.02358008e-05 -1.59118608e-05 -1.59118608e-05 -2.89567397e-05
      -1.19300776e-05 1.71028987e-05 -2.86301311e-05 -3.21959960e-05
      -3.49700967e-05 -4.34739559e-06 -1.40777627e-06 -1.65066031e-05
      -2.60943380e-05 -2.68986478e-05 3.86948777e-05 4.77100584e-05
      -2.22011863e-06 -3.11844051e-05 -3.11844051e-05 -1.62757096e-05
      -1.62153410e-05 -1.12378057e-05 -1.24715683e-07 2.22730546e-06
      2.54229917e-06 4.30963564e-06 1.93286414e-05 1.45217700e-05
      1.45217700e-05 1.38642899e-05 1.42541840e-05 1.42541840e-05
      1.42541840e-05 1.82697913e-05 1.89272723e-05 3.82760372e-05
      8.21890080e-06 -3.74787232e-05 1.89329421e-05 -1.83926966e-06
      4.41874363e-06 1.23067621e-05 3.81445170e-05 2.35207735e-05
      1.82862805e-05 1.62873002e-05 1.42439085e-05 -8.09468929e-06
      -1.36180161e-05 -1.75179612e-05 -1.75179612e-05 -2.75515995e-05
      -4.66266356e-05 -5.29751305e-05 -2.81408234e-06 1.22605024e-05
      1.97737027e-05 3.60261147e-05 8.07979741e-05 1.39755039e-05
      1.70790863e-05 5.47544778e-06 -8.14757914e-06 -1.39005369e-05
      -1.31892084e-05 -1.56773149e-05 -1.59118608e-05 -1.35792825e-05
      -1.19300776e-05 1.71028987e-05 -2.08935344e-05 -2.44593994e-05
      -3.05745925e-05 -4.34739559e-06 -5.39812891e-06 -2.04969547e-05
      -2.68121858e-05 -2.68121858e-05 -1.04190849e-06 5.44098621e-05
      1.31048319e-05 -1.98341459e-05 -3.29476825e-05 -1.19799606e-05
      -2.31498889e-05 -1.76894264e-05 2.69861675e-06 7.02811667e-06
      1.09455918e-07 1.15896978e-06 1.23698749e-06 1.94447275e-05
      1.92432235e-05 1.42541840e-05 1.42541840e-05 5.66519839e-06
      9.68080622e-06 9.68080622e-06 2.00952582e-05 3.08115050e-05
      2.70304427e-05 -7.47719560e-06 3.44079098e-07 2.30801379e-05
      -1.79172616e-06 -4.69124234e-06 1.21140292e-05 7.51543098e-07
      2.12872474e-05 1.19915521e-05 6.26574001e-06 -1.18603384e-05
      -1.18603384e-05 -1.70801577e-05 -1.64226785e-05 -3.83477272e-05
      -5.73066900e-05 -2.80099375e-05 -1.34941356e-05 3.67151711e-06
      1.70673738e-05 3.26039626e-05 4.38254065e-05 1.18002044e-05
      7.49135188e-06 -1.04163073e-05 -1.43163197e-05 -1.39005369e-05
      -1.19015567e-05 -1.56773149e-05 -1.59118608e-05 -1.35792825e-05
      -7.53457198e-06 2.14984047e-05 -2.08935344e-05 -2.44593994e-05
      -2.72768320e-05 -4.34739559e-06 -4.09644690e-06 -1.57037121e-05
      -4.01632060e-05 -3.03225152e-05 -6.04185470e-06 5.10631071e-05
      8.63928835e-06 -2.08839865e-05 -1.96586207e-05 -2.54916158e-05
      -2.69654083e-05 -2.69654083e-05 -1.73740887e-07 -1.12955479e-06
      4.63988590e-06 6.08192704e-06 6.08192704e-06 5.95844040e-06
      1.42541840e-05 1.42541840e-05 1.42541840e-05 9.68080622e-06
      9.68080622e-06 1.14627373e-05 3.41525956e-05 2.67958967e-05
      2.17054130e-05 1.64131525e-05 -6.22100788e-06 -7.17453531e-07
      -4.25692233e-05 1.94157783e-05 -1.21850044e-05 5.81930135e-06
      -7.22662571e-06 7.13972167e-06 1.83457178e-06 -1.17823201e-05
      -1.18603384e-05 -1.51028034e-05 -1.64226785e-05 -1.52976190e-05
      -2.80099375e-05 -2.80099375e-05 -1.34941356e-05 -7.00853616e-06
      1.33849535e-05 6.71452563e-06 2.65272647e-05 3.85256863e-05
      -8.14434145e-07 -1.24180733e-05 -1.43163197e-05 -1.39005369e-05
      -1.19015567e-05 -1.59118608e-05 -1.59118608e-05 -2.21682676e-05
      1.05441381e-06 3.00873908e-05 -1.23045484e-05 -2.05974666e-05
      -1.02035483e-05 7.53935046e-06 3.77469041e-06 -5.81304494e-06
      -3.02725366e-05 -4.23718520e-05 -1.02337117e-05 4.65975645e-05
      -2.38805151e-05 -2.20565471e-05 -3.43217980e-05 -2.41054513e-05
      -2.69654083e-05 -3.22256419e-05 -1.69521707e-06 -1.27212079e-05
      4.00841003e-07 6.08192704e-06 5.88042303e-06 8.91383763e-07
      2.27108308e-06 5.61217530e-06 1.49720317e-05 1.82697913e-05
      1.08052582e-05 1.49730668e-05 2.48767537e-05 1.52890170e-05
      6.85716986e-06 1.05037789e-05 2.54384486e-05 1.80243551e-05
      -6.17919250e-06 -3.89769521e-05 2.07982739e-05 7.81129813e-07
      -3.89577945e-05 -1.87011319e-05 7.13972167e-06 -8.19744741e-07
      -1.12028583e-05 2.74653246e-07 4.60621277e-06 -7.73110060e-06
      -2.80099375e-05 -2.80099375e-05 -2.25139866e-05 -2.25139866e-05
      -5.44924660e-06 6.32576985e-06 3.16456135e-05 5.04037562e-05
      3.12522025e-06 -1.24180733e-05 -8.73565295e-06 -1.38234245e-05
      -1.75991809e-05 -1.59118608e-05 -1.61133667e-05 -1.88676058e-05
      1.05441381e-06 3.34284814e-05 -1.23045484e-05 -2.05974666e-05
      -1.02035483e-05 3.11532276e-05 3.77469041e-06 -5.81304494e-06
      -3.15742182e-05 -3.22612141e-05 1.27872465e-06 4.90304919e-05
      -3.34928518e-05 -2.95024984e-05 -2.97370461e-05 -2.33699539e-05
      -1.87978349e-05 -1.53170240e-05 -1.54220797e-05 -1.27212079e-05
      -4.84705242e-06 9.22151503e-06 4.23247593e-06 4.23247593e-06
      -4.27849227e-06 -4.27849227e-06 -3.56064402e-06 9.68080622e-06
      1.00874095e-05 1.52890170e-05 1.06542375e-05 1.01982623e-05
      2.41908742e-06 7.92264200e-06 7.72113708e-06 2.16219519e-06
      1.57156792e-05 -1.57004579e-05 -1.57004579e-05 1.13671604e-05
      -1.26226223e-06 -1.06257685e-05 -4.03437080e-05 -8.19744741e-07
      1.88892718e-05 9.60615853e-06 1.41939481e-05 -8.38858068e-06
      -3.06886359e-05 -4.02763690e-05 -4.58490285e-05 -2.13895346e-05
      -1.28315396e-05 6.50463244e-06 5.03679476e-05 2.05837750e-05
      3.12522025e-06 -1.24180733e-05 -8.73565295e-06 -9.25016775e-06
      -1.75991809e-05 -1.93340129e-05 -2.80001113e-05 -2.43658505e-05
      4.39550558e-06 3.34284814e-05 -1.23045484e-05 -2.05974666e-05
      -1.49306015e-05 2.78554671e-05 2.81369848e-05 -4.29139391e-06
      -3.22612141e-05 -3.22612141e-05 -7.10324048e-06 3.78482182e-05
      -2.32298225e-05 -2.52288010e-05 -2.14729971e-05 -1.14398763e-05
      -1.67001108e-05 -1.82534241e-05 -1.04753990e-05 -5.04855689e-06
      -8.52947323e-06 -4.35650963e-06 4.23247593e-06 4.23247593e-06
      4.23247593e-06 -4.27849227e-06 -4.27849227e-06 -4.27849227e-06
      6.32267802e-06 1.06542375e-05 9.99675740e-06 1.13702572e-05
      7.92264200e-06 2.05567198e-06 2.05567198e-06 2.05567198e-06
      9.94369020e-06 1.56091555e-05 -1.58069815e-05 -2.14724460e-05
      3.65830283e-06 -1.56337537e-05 -5.63672938e-06 -4.46290942e-05
      -6.95158269e-06 2.45770625e-05 2.38415651e-05 -8.38858068e-06
      -3.06886359e-05 -3.58108264e-05 -4.38113057e-05 -2.57568245e-05
      -2.10129328e-05 -1.72680575e-05 3.89700472e-05 4.23139536e-05
      3.61335442e-05 -1.24180733e-05 -8.73565295e-06 -9.25016775e-06
      -1.67668877e-05 -1.93340129e-05 -2.66984298e-05 -2.43658505e-05
      4.39550558e-06 3.34284814e-05 -1.23045484e-05 -1.95981029e-05
      -1.21072690e-05 3.06787988e-05 2.99609528e-05 -7.80172286e-06
      -3.22612141e-05 -2.94710462e-05 -4.67503269e-05 3.34105098e-05
      -2.57135925e-05 -2.32298225e-05 -2.32298225e-05 -2.06904642e-05
      -3.04269743e-05 -1.08898021e-05 -5.31028127e-06 -5.56347231e-06
      -1.29332502e-05 -1.24183343e-05 -3.05482808e-06 5.53415748e-06
      -3.05482808e-06 -2.97681049e-06 -4.27849227e-06 -4.27849227e-06
      7.10546999e-07 -4.27849227e-06 1.11687523e-05 7.82766074e-06
      7.82766074e-06 7.82766074e-06 7.82766074e-06 7.82766074e-06
      9.94369020e-06 9.94369020e-06 1.00502139e-05 7.94233699e-07
      -2.27518358e-05 -2.21154769e-05 -5.63672938e-06 -1.42536755e-05
      1.07115166e-05 -1.92127186e-06 2.14536867e-05 -2.41504404e-06
      -3.43477477e-05 -3.17200575e-05 -4.34347021e-05 -1.54648824e-05
      -1.54648824e-05 -3.50712298e-06 3.53531118e-06 4.55288355e-05
      2.98722753e-05 -1.24180733e-05 -1.20334134e-05 -1.16791152e-05
      -2.02772153e-05 -2.28443423e-05 -3.02087592e-05 -2.78761800e-05
      5.39487019e-06 3.62518149e-05 -9.48121578e-06 -1.77741349e-05
      -1.54050304e-05 3.06787988e-05 3.06787988e-05 -2.16091757e-06
      -2.87876560e-06 -2.60365759e-05 -4.24187674e-05 2.81053581e-05
      -3.50742594e-05 -2.32298225e-05 -2.32298225e-05 -1.31967017e-05
      -3.41827799e-05 -1.48801546e-05 -5.87816612e-06 -7.03353999e-06
      -7.69102007e-06 -1.29332502e-05 -3.56974351e-06 -3.05482808e-06
      -3.05482808e-06 -3.05482808e-06 -2.97681049e-06 -4.27849227e-06
      -4.27849227e-06 1.22506208e-06 -2.11602992e-06 7.82766074e-06
      7.82766074e-06 7.82766074e-06 7.82766074e-06 1.57156792e-05
      1.57156792e-05 1.57156792e-05 1.57156792e-05 1.86613252e-05
      1.86613252e-05 -1.27548101e-05 -2.21183163e-05 -4.66594065e-06
      -5.32342028e-06 -9.22336494e-06 2.69949433e-05 -7.49546689e-06
      -2.77523741e-05 -2.31859176e-05 -3.62419523e-05 -1.17824611e-05
      -1.17824611e-05 -2.18724836e-06 -1.45930028e-06 4.62826756e-05
      4.82387986e-05 -9.45222496e-08 -1.56672286e-05 -1.51894446e-05
      -2.52662558e-05 -2.16197732e-05 -3.02087592e-05 -2.78761800e-05
      7.21883816e-06 3.62518149e-05 -9.48121578e-06 -1.77741349e-05
      -1.26148598e-05 3.08747040e-05 3.56017590e-05 -2.16091757e-06
      -2.16091757e-06 -4.06961844e-05 -3.99926357e-05 1.66917926e-05
      -3.39498074e-05 -3.14660356e-05 -2.32298225e-05 -1.31967017e-05
      -1.51956810e-05 -1.26022151e-05 -1.29067366e-05 -8.91638410e-06
      -7.69102007e-06 -7.69102007e-06 -7.69102007e-06 -3.56974351e-06
      -3.56974351e-06 -3.05482808e-06 -2.97681049e-06 1.22506208e-06
      1.22506208e-06 2.52674363e-06 -2.11602992e-06 -2.11602992e-06
      7.82766074e-06 1.57156792e-05 1.57156792e-05 1.57156792e-05
      1.57156792e-05 1.57156792e-05 2.07047178e-05 1.86613252e-05
      1.86613252e-05 1.86613252e-05 -1.25305814e-05 -2.11475271e-05
      -3.14623612e-05 -3.67097391e-06 -7.83469261e-07 -1.97074805e-05
      -4.51751148e-05 -1.50385113e-05 -2.47476546e-05 -2.25221970e-06
      -7.17414787e-06 7.43441115e-06 1.74890715e-07 3.74564879e-05
      -8.03684452e-06 2.48915876e-05 -1.94429867e-05 -1.95210032e-05
      -2.55008017e-05 -3.15104407e-05 -3.02087592e-05 -2.78761800e-05
      7.21883816e-06 1.37847655e-05 -6.80123185e-06 -1.61489370e-05
      -1.04820720e-05 3.08747040e-05 3.56017590e-05 -8.59235968e-07
      -2.16091757e-06 -4.06961844e-05 -3.99926357e-05 -2.09999180e-05
      -3.39498074e-05 -3.14660356e-05 -3.25904875e-05 -1.31967017e-05
      -1.51956810e-05 8.69564701e-06 4.76048626e-06 -1.42266117e-05
      -1.42266117e-05 -7.69102007e-06 -7.69102007e-06 1.67248675e-06
      -3.56974351e-06 -3.56974351e-06 2.37161362e-06 1.14794955e-06
      2.52674363e-06 2.52674363e-06 -8.14348255e-07 7.07367008e-06
      5.77198853e-06 5.77198853e-06 1.57156792e-05 1.57156792e-05
      1.57156792e-05 2.16333938e-05 2.72626530e-05 2.72626530e-05
      2.72626530e-05 3.35092955e-05 3.46337474e-05 1.92935750e-05
      -1.83314951e-05 -2.61055211e-05 1.46532657e-05 -1.57124960e-05
      -1.01913829e-05 -1.01913829e-05 -2.42136612e-05 -1.25659062e-05
      1.12361067e-05 1.39579206e-05 8.71310385e-06 4.16863877e-05
      1.33865797e-05 3.48617432e-05 -1.88635240e-05 -1.95210032e-05
      -3.27881062e-05 -3.02087592e-05 -3.15104407e-05 -2.91778615e-05
      1.21417961e-05 1.59175524e-05 4.66326273e-05 -1.61489370e-05
      1.18179814e-05 3.08747040e-05 3.08747040e-05 -8.59235968e-07
      -1.62366923e-05 -3.86173087e-05 -3.88658809e-05 -2.53423859e-05
      -3.39498074e-05 -3.01643540e-05 -3.12888042e-05 -2.25573676e-05
      -6.45463660e-06 9.99732856e-06 8.44290662e-06 8.44290662e-06
      -1.42266117e-05 -1.42266117e-05 -1.16813726e-05 -7.69102007e-06
      -1.41294470e-06 -1.41294470e-06 1.93381061e-06 6.32129002e-07
      2.34310801e-06 -9.20871514e-07 1.30168166e-06 1.30168166e-06
      1.30168166e-06 0. 0. 9.94369020e-06 1.53104484e-05 2.58584296e-05
      2.26151151e-05 2.26151151e-05 3.26507034e-05 4.16139264e-05
      4.33072528e-05 2.09952395e-05 1.70143521e-05 -1.15222092e-05
      -5.38618224e-05 -5.38618224e-05 -1.88471915e-06 -1.42874376e-06
      -1.13724345e-05 -2.06482782e-05 2.87262756e-05 -4.99023372e-06
      1.98394300e-05 4.72585016e-05 2.98945597e-05 1.94062704e-05
      -3.29211070e-05 -3.31628034e-05 -3.31977608e-05 -3.15104407e-05
      -3.15104407e-05 -2.91778615e-05 1.10173441e-05 1.59175524e-05
      4.66326273e-05 -1.61489370e-05 1.18179814e-05 3.08747040e-05
      3.08747040e-05 1.22388283e-05 -1.95777848e-05 -4.19583994e-05
      -3.75641976e-05 -2.83722638e-05 -3.27252383e-05 -3.35054465e-05
      -3.46298984e-05 -2.73146325e-05 -1.71130032e-05 9.99732856e-06
      8.44290662e-06 8.44290662e-06 3.18267166e-06 -1.05441914e-05
      -1.05441914e-05 -7.49769288e-06 3.18568846e-06 -1.41294470e-06
      -1.41294470e-06 -1.41294470e-06 9.79332344e-06 1.22456925e-06
      1.22456925e-06 1.22456925e-06 1.30168166e-06 1.30168166e-06
      1.12445127e-06 6.38468600e-06 1.70462245e-05 2.20352631e-05
      1.99918723e-05 2.95062691e-05 4.30016407e-05 3.98225857e-05
      4.12630143e-05 3.06736074e-05 2.01856492e-05 1.04834226e-05
      -2.25130952e-06 -4.76275527e-05 -5.13393861e-05 -5.68945361e-05
      -2.43931536e-05 -3.95360621e-05 -7.39934512e-06 1.85311146e-05
      3.31539522e-05 2.81986249e-05 5.21296352e-05 -1.55582384e-05
      -3.82960097e-05 -3.31628034e-05 -3.31977608e-05 -3.15104407e-05
      -3.15104407e-05 -1.95901266e-05 1.02994964e-05 1.40752536e-05
      4.55081754e-05 -1.72733889e-05 3.24237117e-05 2.75336133e-05
      2.75336133e-05 8.89773673e-06 -1.60674554e-05 -1.39885778e-05
      -3.73949624e-05 -3.17133563e-05 -6.77616190e-05 -3.59892183e-05
      -3.46298984e-05 -2.60129509e-05 -5.09230631e-06 5.33636194e-06
      3.36415866e-07 1.01868480e-07 -1.58420235e-07 -8.38172855e-06
      -8.38172855e-06 -1.20641489e-05 1.16484648e-06 2.48472134e-06
      2.48472134e-06 6.47507386e-06 3.13398186e-06 3.21199946e-06
      6.55875510e-06 6.99655766e-06 7.71440591e-06 8.83885696e-06
      8.80944663e-06 8.40421581e-06 6.16124271e-06 9.44796011e-06
      3.98433731e-05 4.53071552e-05 5.07648365e-05 4.39042124e-05
      4.88988990e-05 3.89802699e-05 2.06128625e-05 1.91966883e-05
      -9.97875122e-06 -1.67752150e-05 -2.61358819e-05 -5.68945361e-05
      -6.41901061e-05 -7.32461274e-07 2.67929681e-05 -1.18400349e-05
      7.31309683e-06 5.45178991e-05 6.33371528e-05 2.40068803e-05
      3.53532823e-06 -3.64935040e-05 -2.25710301e-05 -3.02087592e-05
      -2.06210243e-05 -2.39216861e-05 6.95840436e-06 1.07341612e-05
      4.21670848e-05 -2.06144814e-05 2.90826192e-05 2.64091614e-05
      2.64091614e-05 4.17068304e-06 -1.60674554e-05 -1.39885778e-05
      -3.66771128e-05 -5.30640536e-05 -6.77616190e-05 -3.59892183e-05
      -3.46298984e-05 -2.60129509e-05 -3.09332631e-06 -4.02430396e-06
      -9.02425018e-06 3.36415866e-07 5.60542276e-06 -8.38172855e-06
      -8.38172855e-06 -4.17613091e-06 -1.27651165e-05 1.16484648e-06
      -2.17624552e-06 -8.56370718e-07 1.83230009e-06 3.21199946e-06
      3.92984748e-06 7.27660290e-06 6.59588386e-06 1.18561184e-05
      1.18561184e-05 1.18561184e-05 1.19332308e-05 2.28317658e-05
      2.53210274e-05 3.03875386e-05 4.26862680e-05 4.16191360e-05
      4.29208158e-05 2.86746872e-05 2.99763688e-05 6.89381704e-06
      -1.54735335e-05 -1.54735335e-05 -2.04576354e-05 -2.91608212e-05
      -4.84998163e-05 -7.99159534e-05 -7.05552884e-05 1.51188806e-05
      1.38935166e-05 3.41042796e-05 3.17604572e-05 5.47420404e-06
      2.50800640e-05 -6.11808719e-06 7.80438768e-06 -2.58771997e-05
      -2.06210243e-05 -1.82884451e-05 2.71495787e-06 1.04730989e-05
      4.19060198e-05 -2.08755446e-05 2.92346776e-05 2.65612198e-05
      2.65612198e-05 4.32274237e-06 1.54093857e-06 -5.24753250e-06
      -2.79360684e-05 -4.36051596e-05 -5.90205782e-05 -2.73252845e-05
      -2.47644020e-05 -2.27210094e-05 -1.96887504e-06 -2.02532374e-06
      -1.44913110e-05 -3.52069583e-06 5.83997007e-06 3.45187800e-07
      -5.49365677e-06 -1.27651165e-05 -1.27651165e-05 -3.16706246e-06
      -1.94169797e-06 -1.86368038e-06 1.15358125e-06 2.47345588e-06
      6.94710934e-06 6.84058614e-06 2.29957186e-06 5.64632728e-06
      9.76655065e-06 1.54320151e-05 5.86594342e-06 1.53110486e-05
      1.91538111e-05 1.38069572e-05 3.90038476e-05 2.94161127e-05
      2.81144312e-05 1.39910771e-05 1.39910771e-05 2.03818945e-06
      -1.66721838e-05 -2.34517029e-05 -3.35270197e-05 -2.91954602e-05
      -4.71981330e-05 -3.91391513e-05 -4.13821217e-05 -4.83387666e-05
      -4.71151034e-05 -4.30802320e-05 6.65711268e-05 6.13674420e-05
      3.56292403e-05 9.25936911e-06 -2.87566559e-06 1.40859529e-05
      -1.62894648e-05 -1.82884451e-05 1.35110849e-05 2.12692248e-05
      5.27021475e-05 6.73344721e-06 3.96176838e-05 3.69442241e-05
      3.69442241e-05 5.11801181e-06 -3.59923706e-06 -1.42496401e-05
      -1.22771798e-05 -4.80742056e-05 -5.41827867e-05 -2.24874948e-05
      -1.99266124e-05 -7.28859777e-06 -2.38199732e-06 -8.10386780e-07
      -6.11553696e-06 -1.17810023e-05 -1.93483811e-06 6.72486067e-06
      -2.83112263e-06 -1.21842195e-05 -1.08666936e-05 -1.31096667e-05
      1.51407448e-06 2.73943897e-06 5.44932982e-06 5.75405556e-06
      7.48705224e-06 1.08284021e-05 1.48187546e-05 4.85754072e-06
      7.07441131e-06 4.44308353e-06 5.34983565e-06 3.37737470e-06
      3.48389790e-06 2.98191605e-09 5.74555952e-06 4.44387797e-06
      1.56892493e-05 6.27102210e-08 6.27102210e-08 -1.16886731e-05
      -2.16580011e-05 -2.34842919e-05 -2.04544140e-05 -2.04544140e-05
      -2.90964235e-05 -2.90964235e-05 -4.00804420e-05 -1.56989663e-05
      -1.56989663e-05 -1.16640958e-05 -1.49066218e-05 1.93791966e-05
      9.77945319e-07 4.75883753e-05 4.31020999e-05 3.77969482e-05
      -2.82711990e-05 -1.82884451e-05 1.58989624e-05 2.36571032e-05
      5.27021475e-05 6.73344721e-06 4.29154425e-05 4.02419864e-05
      4.02419864e-05 8.41577184e-06 7.19688978e-06 1.38964042e-05
      -1.48105278e-06 -3.72780778e-05 -6.59830039e-05 -2.16002281e-05
      -1.46996872e-05 -1.66065149e-06 8.52111862e-06 -6.11553696e-06
      -6.11553696e-06 -3.99950704e-06 -1.36349263e-05 -1.10556027e-06
      4.55990494e-06 4.55990494e-06 -9.16695808e-06 -1.28493784e-05
      1.52409375e-05 1.52409375e-05 1.44673222e-05 1.49506222e-05
      1.79151957e-05 1.79151957e-05 1.70496678e-05 1.57797858e-05
      6.83205997e-07 3.98096608e-06 2.52644963e-06 -6.11644623e-07
      5.05382059e-06 5.71130022e-06 5.71130022e-06 2.20097127e-06
      3.31188289e-06 -5.30506350e-06 7.20189917e-07 2.66387224e-06
      -2.10005219e-05 -1.91527324e-05 -1.91527324e-05 -2.04544140e-05
      -2.90964235e-05 -2.90964235e-05 -3.13393975e-05 -3.14174140e-05
      -6.95792141e-06 -1.19590431e-05 3.60977210e-05 4.22467128e-05
      -1.22864249e-05 -1.21612175e-05 2.60022916e-05 2.06971417e-05
      7.42153225e-06 -2.30154983e-05 7.15791703e-06 1.49160578e-05
      2.13334570e-05 2.14510983e-05 4.86444114e-05 4.59709554e-05
      4.70954074e-05 1.41447408e-05 1.62236192e-05 1.15572275e-05
      1.62842807e-05 -3.42327221e-05 -6.29376445e-05 -1.30513181e-05
      -1.16543306e-05 -7.20428034e-06 -1.08713145e-07 -1.46265047e-05
      -8.98145936e-06 -8.98145936e-06 -1.47534483e-05 -1.58778985e-05
      -1.10556027e-06 2.56092517e-06 2.56092517e-06 2.56092517e-06
      -4.71867770e-06 1.30074104e-05 9.64477476e-06 1.45525601e-05
      1.45525601e-05 7.21344713e-06 7.21344713e-06 -8.97792916e-07
      -5.19354126e-06 -3.56030955e-06 -2.09337259e-06 -4.94622191e-06
      -1.16166370e-06 3.16989576e-06 3.16989576e-06 -1.27864510e-07
      -1.27864510e-07 -1.27864510e-07 -1.34718639e-05 -5.42581620e-06
      -1.23638199e-06 -1.30836597e-05 -1.30836597e-05 -1.43853413e-05
      -2.43290306e-05 -2.52703230e-05 -2.53483413e-05 -2.53483413e-05
      -8.88848149e-07 9.48748675e-06 2.29447760e-05 3.41531086e-05
      9.62193440e-07 3.08469652e-07 -8.50968809e-06 -1.40163420e-05
      3.76941534e-05 -3.36955527e-05 -3.63820982e-06 7.57295993e-07
      2.13119129e-05 1.03024267e-05 2.35515963e-05 1.89944421e-05
      2.01188923e-05 1.07821061e-05 1.28609845e-05 8.19459274e-06
      1.29216460e-05 2.24159294e-06 -9.71867557e-05 -1.29036234e-05
      -1.73370518e-05 -1.28098882e-05 2.17369711e-06 -8.09055291e-06
      -8.09055291e-06 -1.28176061e-05 -2.28431363e-05 -2.28431363e-05
      -2.05105571e-05 -1.54814497e-05 -1.00697771e-05 -4.63885954e-06
      -4.63885954e-06 4.72464717e-06 -1.66003895e-06 1.26102896e-06
      2.48639344e-06 -2.61316154e-06 -6.90891011e-06 -1.19063116e-05
      -1.68953502e-05 -1.22777155e-05 -1.43211073e-05 -5.34171568e-06
      -5.34171568e-06 -8.63947571e-06 -4.85491773e-06 -4.96144094e-06
      -4.96144094e-06 -4.96144094e-06 -1.34718639e-05 -1.30587414e-05
      1.15149510e-06 1.15149510e-06 -1.06957823e-05 -1.06957823e-05
      -2.06394725e-05 -2.42621445e-05 -2.29604630e-05 -2.29604630e-05
      -7.99612917e-06 1.18753642e-05 -1.79168683e-06 1.68432525e-05
      -9.07339472e-06 -6.12181066e-06 -1.57227096e-05 -2.22230865e-05
      -2.91455290e-05 -3.36955527e-05 -6.02608679e-06 -1.63058121e-06
      1.02740896e-05 -1.47130959e-05 -1.02049707e-05 -3.64923071e-05
      -2.66268107e-05 -3.78472942e-05 -3.57684148e-05 -1.34798383e-05
      -1.43368497e-05 -8.83329540e-06 -1.33271344e-04 8.11887821e-06
      -3.89531169e-06 -1.41154089e-06 8.85584370e-07 -3.20489585e-06
      -3.86237571e-06 -1.20997584e-05 -1.20997584e-05 -1.78717473e-05
      -1.98707257e-05 -1.98707257e-05 -1.04320434e-05 -5.02036983e-06
      -5.97276539e-06 -6.71773751e-06 -7.90979720e-06 -1.74657798e-05
      -8.13427414e-06 -6.90891011e-06 -1.19063116e-05 -1.19063116e-05
      -1.19063116e-05 -1.19063116e-05 -1.26298282e-05 -1.26298282e-05
      -8.63947571e-06 -8.63947571e-06 -8.20167315e-06 -1.06269063e-05
      -1.06269063e-05 -4.96144094e-06 -1.35783876e-05 -1.30587414e-05
      -1.16859053e-06 1.07438268e-06 -1.40938812e-06 -5.43554734e-06
      -1.54572554e-05 -2.33656938e-05 -1.77002294e-05 -7.58300666e-06
      -1.13587639e-05 3.13431929e-06 -2.32195034e-05 -2.10822600e-05
      3.22567098e-06 -7.03517944e-05 -2.65188355e-05 -2.46109648e-05
      3.43121210e-05 -3.34940487e-05 -9.53641575e-06 -4.42306236e-06
      4.37588324e-06 3.31612900e-05 -2.12427949e-05 -3.67340035e-05
      -3.56095516e-05 -7.08031876e-05 -5.99832674e-05 -5.80108062e-05
      -3.74159245e-05 -9.07499270e-06 -1.14944967e-04 -1.71383417e-05
      -2.91525321e-05 -4.63155266e-06 -2.43716349e-05 -2.82606106e-05
      -3.44659293e-06 -8.17364617e-06 -1.20997584e-05 -1.41389310e-05
      -1.92132466e-05 -1.92132466e-05 -1.98707257e-05 -1.05100607e-05
      -1.26493069e-05 -8.00163707e-06 -9.24370306e-06 -1.35394512e-05
      -2.01146668e-05 -1.44492014e-05 -1.19063116e-05 -1.75717760e-05
      -1.75717760e-05 -1.75717760e-05 -1.96151686e-05 -1.96151686e-05
      -1.26298282e-05 -1.26298282e-05 -1.43049410e-05 -1.05203835e-05
      -1.06269063e-05 -1.06269063e-05 -1.35783876e-05 -1.30587414e-05
      -4.43587214e-06 6.33461741e-06 3.85084650e-06 3.77282890e-06
      -8.41383462e-06 -1.40178081e-05 1.35964831e-06 -7.79451875e-06
      -1.11571535e-05 1.85194585e-05 -3.25161163e-05 -2.97154256e-05
      -1.44756550e-05 -2.08489109e-05 -2.89067120e-05 -3.41669474e-05
      3.43121210e-05 -3.34940487e-05 -9.47430465e-07 -4.42306236e-06
      1.03479147e-06 1.95417597e-05 2.75602124e-05 3.66075483e-06
      4.78520633e-06 -7.78159665e-06 -9.89331693e-06 -7.81443850e-06
      5.51686435e-06 -4.65310331e-05 -1.35829541e-04 -5.61296765e-05
      -3.04724072e-05 -4.63155266e-06 -4.28282947e-05 -1.88971044e-05
      -2.82606106e-05 -3.29876639e-05 -3.64979933e-05 -3.64979933e-05
      -1.35879745e-05 -1.94549448e-05 -2.15338223e-05 -2.22516701e-05
      -1.28910042e-05 -1.28910042e-05 -8.71030534e-06 -1.31925992e-06
      -1.52806697e-05 -1.52026523e-05 -1.52026523e-05 -1.39772883e-05
      -1.26597624e-05 -1.26597624e-05 -1.97216923e-05 -1.97216923e-05
      -1.96151686e-05 -1.39497033e-05 -1.21920257e-05 -5.26014855e-06
      -5.36667176e-06 -5.36667176e-06 -8.31815214e-06 -7.90503054e-06
      -4.43587214e-06 -3.60907279e-06 7.76781417e-06 8.81424785e-06
      9.23332550e-07 6.32876981e-06 6.43529302e-06 -8.44654267e-07
      -1.39970089e-05 -3.93881746e-05 -5.49912547e-05 -2.49105542e-05
      -1.63167133e-05 -2.08489109e-05 -3.83378283e-05 -3.19986866e-05
      2.69243974e-05 -4.08817687e-05 -9.47430465e-07 4.16592320e-06
      1.03479147e-06 1.95417597e-05 2.75602124e-05 9.75717558e-06
      7.90088325e-06 -1.30741691e-05 -1.28014253e-05 -2.00529826e-06
      7.35798338e-08 -6.56527254e-06 -8.23956725e-05 -1.37459447e-05
      -2.23826064e-05 -9.63149887e-06 -4.28282947e-05 -2.48478427e-05
      -1.88971044e-05 -2.36241576e-05 -2.36241576e-05 -2.71344870e-05
      -2.71344870e-05 -2.79588585e-05 -4.65493431e-05 -4.39261021e-05
      -2.22516701e-05 -1.28910042e-05 -1.59879164e-05 -6.62440971e-06
      -1.31925992e-06 -1.31925992e-06 -1.09849216e-05 -1.52806697e-05
      -1.40553057e-05 -8.97734208e-06 -1.10207338e-05 -5.24874531e-06
      -5.24874531e-06 -5.24874531e-06 -8.49336266e-06 -5.50184541e-06
      -5.50184541e-06 -5.36667176e-06 -1.44970386e-06 3.07685809e-07
      3.77684387e-06 4.60364299e-06 -3.09096822e-06 4.36895152e-06
      7.45322131e-06 1.68843362e-05 1.72352554e-06 -5.84107966e-06
      3.51210792e-06 -5.73129873e-05 -5.18348243e-05 -2.80537006e-05
      -2.91082997e-05 -1.19974293e-05 -2.41106682e-05 -3.72589202e-05
      2.69243974e-05 -4.08817687e-05 -9.47430465e-07 -4.42306236e-06
      1.03479147e-06 1.62006672e-05 4.10753164e-05 1.52607299e-05
      1.55873968e-05 -1.21070916e-05 -7.54524945e-06 -7.54524945e-06
      7.58243687e-06 9.66131483e-06 -7.82512216e-05 1.85990975e-05
      6.75600813e-06 1.75606181e-06 -3.14407334e-05 -2.50767107e-06
      2.06386831e-05 -2.36241576e-05 -2.36241576e-05 -2.36241576e-05
      -2.43420072e-05 -2.02830670e-05 -2.58722739e-05 -3.45625958e-05
      -3.65350570e-05 -3.65350570e-05 -3.05154808e-05 -6.62440971e-06
      -6.42290570e-06 -1.11775557e-06 -1.11775557e-06 -1.11775557e-06
      -1.11775557e-06 5.67809320e-06 -5.79641346e-06 -7.96467361e-07
      -7.18449655e-07 -5.01419800e-06 -4.57639499e-06 7.05646107e-06
      1.39099575e-06 2.60434740e-06 2.60434740e-06 3.07685809e-07
      5.59136515e-06 7.75632088e-06 6.34014623e-06 1.13253936e-05
      5.29266913e-07 -2.92401160e-06 -1.46051684e-06 -8.22895709e-06
      9.20975367e-07 -4.20304386e-05 -3.71396709e-05 -5.30692232e-05
      -2.05964261e-05 -3.40844372e-06 -1.30093422e-05 -2.34097006e-05
      3.55133816e-05 -4.52133281e-05 -1.14893476e-06 -4.62456637e-06
      -3.49827224e-06 3.40478582e-05 4.64380391e-05 3.21307889e-05
      2.47709413e-05 -1.21070916e-05 -9.93312642e-06 -9.93312642e-06
      -7.54524945e-06 -6.55478198e-06 -7.82512216e-05 2.64546429e-06
      7.60269813e-06 1.75606181e-06 2.95331429e-05 4.06338586e-05
      -2.47053740e-05 -5.81855011e-06 2.98097002e-05 2.98097002e-05
      -2.02830670e-05 -2.10009148e-05 -2.23619445e-05 -2.51587771e-05
      -3.08242415e-05 -3.28232236e-05 -3.28232236e-05 -3.14384270e-05
      -3.14384270e-05 -3.14384270e-05 -3.14384270e-05 -1.11775557e-06
      4.54770952e-06 4.65423273e-06 3.63470099e-06 3.63470099e-06
      3.63470099e-06 8.63464720e-06 1.24192056e-05 1.64095582e-05
      1.08221102e-05 3.09899360e-06 3.09899360e-06 2.22872995e-06
      5.51334733e-06 9.75530020e-06 -2.45700062e-06 3.02258013e-05
      1.94556305e-05 1.53587553e-05 1.68106599e-05 2.65049184e-05
      3.09341885e-05 -2.47182834e-05 -3.26991212e-05 -4.06297877e-05
      2.78374864e-05 -3.51496692e-06 -1.30093422e-05 -2.44076891e-05
      3.11818221e-05 -3.66243439e-05 -1.85940298e-05 -8.95612629e-06
      9.89330056e-06 2.50591766e-05 3.69143199e-05 2.24523737e-05
      1.50925280e-05 -8.27040185e-06 -5.22736173e-06 -3.25490078e-06
      -3.25490078e-06 1.07665858e-06 -1.88805316e-05 -3.23542117e-05
      1.82827516e-05 -6.98498297e-06 2.07920966e-05 4.06338586e-05
      -6.10954085e-05 -2.94324291e-05 -2.47745834e-06 -2.83183126e-05
      3.31507908e-05 3.31507908e-05 2.90994521e-05 -2.50522535e-05
      -2.51587771e-05 -2.51587771e-05 -3.08242415e-05 -3.41653322e-05
      -2.48046672e-05 -2.83149966e-05 -3.03139768e-05 -2.46485124e-05
      -2.45419888e-05 -1.92368389e-05 3.53378778e-06 4.75915249e-06
      4.75915249e-06 4.75915249e-06 1.25340630e-05 1.07919441e-05
      5.12647921e-06 2.94794481e-05 3.51449125e-05 1.64931826e-05
      2.11756924e-05 2.34186664e-05 1.49442385e-05 1.49442385e-05
      1.77443035e-05 1.65068104e-05 2.07329304e-05 2.99087260e-05
      9.87073690e-06 -2.57176471e-05 -2.38755874e-05 -5.46292104e-05
      9.30308124e-06 2.37941113e-05 -1.30093422e-05 -2.52289192e-05
      3.01838354e-05 -3.66243439e-05 -8.73476438e-06 -8.91263608e-06
      9.89330056e-06 2.50591766e-05 3.69143199e-05 1.91112831e-05
      1.17514355e-05 -1.16114934e-05 -1.16114934e-05 -1.20674686e-05
      -1.00950083e-05 -5.10596919e-06 -3.09468232e-05 -1.24485723e-05
      2.87039838e-05 -9.66183507e-06 1.11136833e-05 1.35974542e-05
      -1.12907628e-05 -3.72767317e-05 -2.95871232e-05 -2.95871232e-05
      -5.97324470e-06 7.92482570e-06 3.87348655e-06 2.48858196e-05
      2.48858196e-05 1.91138297e-05 2.26096163e-05 -3.41653322e-05
      -3.41653322e-05 -2.83149966e-05 -2.26495322e-05 -2.25430085e-05
      -2.25430085e-05 -2.25430085e-05 -2.45864012e-05 4.97673773e-06
      6.20210221e-06 2.29143825e-05 3.02514909e-05 3.04529949e-05
      2.47875305e-05 1.88848262e-05 2.45502906e-05 1.66946884e-05
      1.83872926e-05 1.72835116e-05 1.07027900e-05 1.76200483e-05
      1.76200483e-05 1.14349368e-05 1.08647828e-05 3.52498791e-05
      -2.70014152e-06 -1.77272650e-05 -4.88911101e-05 -5.43946662e-05
      1.86665875e-05 3.32252275e-05 -2.40910504e-05 4.90768252e-06
      3.36941630e-05 -5.29997887e-05 -1.09262210e-05 -1.41728706e-05
      -3.45478202e-06 2.13767562e-05 3.69143199e-05 1.91112831e-05
      1.95782541e-05 -1.22689735e-05 -1.22689735e-05 -1.20674686e-05
      -1.20674686e-05 -7.73590909e-06 -3.09468232e-05 -5.35656545e-05
      2.63161055e-05 5.17169356e-05 2.34203962e-05 2.69964839e-05
      -3.49557649e-06 -4.89026461e-05 -4.89026461e-05 -3.91108406e-05
      -3.91108406e-05 -3.91108406e-05 -3.26845584e-05 -2.30914111e-06
      -3.02698913e-06 1.87031910e-05 1.85533354e-05 2.14382035e-05
      2.14382035e-05 5.53648861e-05 -1.57930231e-06 -1.57930231e-06
      -3.62269429e-06 -3.62269429e-06 -1.23637392e-05 -1.23637392e-05
      -1.11383742e-05 -5.39542179e-06 5.43747228e-06 1.96568690e-05
      1.15076318e-05 1.14011091e-05 1.53965448e-05 1.78110786e-05
      1.21189642e-05 1.03715847e-05 1.77163474e-05 1.63001732e-05
      1.72069249e-05 1.16891542e-05 1.15826315e-05 2.69646007e-05
      -2.91569395e-05 -3.31047231e-05 -6.97721189e-05 -1.63382629e-05
      1.04168366e-05 1.19624356e-05 -1.89914954e-05 6.84935867e-06
      2.26124557e-05 -5.01469403e-05 -1.09262210e-05 -2.04675980e-05
      -1.36682447e-05 1.10536139e-05 3.25744186e-05 1.84538021e-05
      1.95782541e-05 -3.78467530e-06 -3.78467530e-06 -3.58317106e-06
      -1.20674686e-05 -3.79083212e-05 -3.29192844e-05 -3.81881982e-05
      2.63161055e-05 4.34131325e-05 1.89536404e-05 3.41004488e-05
      8.81113556e-06 -2.57998072e-05 -3.93149094e-05 -3.93149094e-05
      -3.49663933e-05 -3.58130819e-05 -1.74483193e-05 -4.32891757e-05
      2.34047202e-05 2.00636277e-05 4.17938063e-05 4.16872863e-05
      4.10759603e-05 3.77781980e-05 3.42678723e-05 4.36285372e-05
      -1.85463668e-05 -2.10301368e-05 -1.14424029e-05 -2.10301368e-05
      -2.44182720e-05 -1.99158658e-05 -2.52603077e-05 -1.92373100e-05
      1.08083923e-05 1.07018686e-05 1.17109275e-05 1.19279448e-05
      1.13002270e-05 1.63001732e-05 1.63001732e-05 1.63001732e-05
      1.93973792e-05 1.36670396e-05 2.34693762e-05 1.15570274e-05
      -2.71579593e-05 -3.58948928e-05 -6.97721189e-05 -1.63382629e-05
      -4.96061966e-06 1.21969824e-05 -9.62798913e-06 -2.35260595e-05
      3.20435720e-05 -4.58511895e-05 -1.15837001e-05 -2.11250790e-05
      -1.91260988e-05 1.49763059e-06 2.29087582e-05 1.47713827e-05
      1.58958337e-05 1.95782541e-05 -3.78467530e-06 -3.58317106e-06
      -3.58317106e-06 -3.58317106e-06 7.48388459e-07 -4.01606594e-05
      2.42727147e-05 4.13697417e-05 1.69102477e-05 -8.79972868e-06
      2.88393585e-05 -1.41798328e-05 -1.41798328e-05 -3.38370592e-06
      -3.38370592e-06 -4.89403210e-05 -2.21380269e-05 -1.74483193e-05
      -4.32891757e-05 -1.03117900e-05 2.00636277e-05 2.00636277e-05
      1.42820963e-05 3.68589681e-05 3.33486387e-05 2.47316912e-05
      3.40923580e-05 3.40923580e-05 2.32962302e-05 -3.01376276e-05
      -3.03284378e-05 -2.89317559e-05 -3.45291373e-05 -2.49414043e-05
      -2.21055307e-05 -1.72381842e-05 1.12731250e-05 7.93759227e-06
      1.13002270e-05 1.48105555e-05 1.48105555e-05 1.98105026e-05
      1.60347445e-05 2.22560247e-05 2.21495029e-05 -3.80267693e-06
      -2.81573230e-05 -6.10442221e-05 -6.97721189e-05 -1.76581379e-05
      -2.66907991e-05 7.86542296e-06 -9.39344136e-06 -1.41625524e-05
      3.13860910e-05 -3.64200750e-05 -1.89473212e-05 -1.91260988e-05
      -4.30473847e-06 1.08611366e-05 1.33527747e-05 5.10572090e-06
      6.46471926e-06 1.58958337e-05 -3.78467530e-06 -3.58317106e-06
      -3.58317106e-06 -3.58317106e-06 7.48388459e-07 -3.16763617e-05
      4.14349561e-05 5.20497924e-05 5.20497924e-05 1.56597634e-05
      2.67604810e-05 -7.30383090e-06 -1.41798328e-05 -1.41798328e-05
      1.19762399e-06 -3.38370592e-06 -6.21125364e-05 -1.90854007e-05
      -2.85490369e-05 -4.48021565e-05 -4.50263833e-05 -2.05658162e-05
      6.51184109e-06 6.51184109e-06 5.09566689e-06 2.68258464e-05
      1.60297204e-05 2.18800560e-05 2.53903854e-05 1.94921795e-05
      2.07175435e-05 -2.49414043e-05 -2.49414043e-05 -2.87259609e-05
      -2.87259609e-05 -2.87259609e-05 1.97762256e-06 1.14479208e-05
      1.48105555e-05 1.48105555e-05 1.48105555e-05 1.43974339e-05
      2.29215439e-05 2.22560247e-05 2.21495029e-05 -2.99099011e-05
      -3.37511628e-05 -6.23640954e-05 -6.77731441e-05 -1.76581379e-05
      -2.53568942e-05 -1.49808307e-06 -1.87569476e-05 -2.32915118e-05
      3.47328460e-05 -2.90829685e-05 -8.35935589e-06 -8.53722759e-06
      -4.30473847e-06 1.49763059e-06 1.33527747e-05 -4.21571531e-06
      2.42984902e-06 7.69008420e-06 -7.46709566e-06 -7.26559119e-06
      -3.58317106e-06 -3.58317106e-06 -3.58317106e-06 -3.16763617e-05
      3.61298044e-05 7.39390889e-05 6.29302376e-05 3.10372197e-05
      2.65402050e-05 -9.86039481e-07 -1.67879862e-05 -1.67879862e-05
      -1.44001096e-05 -2.97775659e-05 -2.97775659e-05 -2.30327787e-05
      -3.36155390e-05 -3.36155390e-05 -3.36155390e-05 -5.94563899e-05
      -2.64790069e-05 -1.01974765e-05 -1.01974765e-05 -1.01974765e-05
      1.15327039e-05 1.85054923e-05 1.85054923e-05 1.85054923e-05
      1.97308564e-05 2.75057682e-05 -2.97126498e-05 -2.97126498e-05
      -2.52156333e-05 -2.92059849e-05 -1.95275716e-05 6.14277087e-06
      9.50540561e-06 1.48105555e-05 1.81083160e-05 2.62841786e-05
      2.29215439e-05 2.29215439e-05 1.22876218e-05 -3.10343530e-05
      -3.17077684e-05 -6.23640954e-05 -1.56591577e-05 -2.26580833e-05
      -2.53568942e-05 -9.97646566e-06 -1.87569476e-05 -1.66118825e-05
      3.89577472e-05 -2.90829685e-05</_></support_vectors>
  <uncompressed_sv_total>76</uncompressed_sv_total>
  <uncompressed_support_vectors>
    <_>
      255. 255. 255. 255. 255. 255. 255. 255. 255. 255. 255. 255. 255.
      255. 255. 255. 255. 255. 255. 255. 0. 0. 0. 0. 0. 255. 255. 255.
      255. 255. 0. 0. 0. 0. 0. 0. 0. 0. 0. 255. 255. 255. 255. 255. 255.
      0. 0. 0. 0. 0. 0. 255. 255. 255. 255. 255. 255. 255. 255. 255.
      255. 255. 255. 0. 255. 255. 255. 255. 255. 255. 255. 255. 255.
      255. 255. 255. 255. 255. 255. 255. 255. 255. 255. 255. 0. 0. 0. 0.
      0. 255. 255. 255. 255. 255. 0. 0. 0. 0. 0. 0. 0. 0. 0. 0. 255.
      255. 255. 255. 255. 0. 0. 0. 0. 0. 0. 255. 255. 255. 255. 255.
      255. 255. 255. 255. 255. 255. 255. 0. 255. 255. 255. 255. 255.
      255. 255. 255. 255. 255. 255. 255. 255. 255. 255. 255. 255. 255.
      255. 255. 0. 0. 0. 0. 0. 255. 255. 255. 255. 255. 0. 0. 0. 0. 0.
      0. 0. 0. 0. 0. 255. 255. 255. 255. 255. 0. 0. 0. 0. 0. 0. 255.
      255. 255. 255. 255. 255. 255. 255. 255. 255. 255. 255. 0. 255.
      255. 255. 255. 255. 255. 255. 255. 255. 255. 255. 255. 255. 255.
      255. 0. 0. 255. 255. 255. 0. 0. 0. 0. 0. 255. 255. 255. 255. 255.
      0. 0. 0. 0. 0. 0. 0. 0. 0. 0. 255. 255. 255. 255. 255. 0. 0. 0. 0.
      0. 0. 255. 255. 255. 255. 255. 255. 255. 255. 255. 255. 255. 255.
      0. 255. 255. 255. 255. 255. 255. 255. 255. 255. 255. 255. 255.
      255. 255. 255. 0. 0. 0. 0. 255. 0. 0. 0. 0. 0. 255. 255. 255. 255.
      255. 0. 0. 0. 0. 0. 0. 0. 0. 0. 0. 255. 255. 255. 255. 255. 0. 0.
      0. 0. 0. 0. 255. 255. 255. 255. 255. 255. 255. 255. 255. 255. 255.
      255. 0. 255. 255. 255. 255. 255. 255. 255. 255. 255. 255. 255.
      255. 255. 255. 255. 255. 0. 0. 0. 0. 0. 0. 0. 0. 0. 255. 255. 255.
      255. 255. 0. 0. 0. 0. 0. 0. 0. 0. 0. 0. 255. 255. 255. 255. 255.
      0. 0. 0. 0. 0. 0. 255. 255. 255. 255. 255. 255. 255. 255. 255.
      255. 255. 255. 0. 255. 255. 255. 255. 255. 255. 255. 255. 255.
      255. 255. 255. 255. 255. 255. 255. 255. 0. 0. 0. 0. 0. 0. 0. 0.
      255. 255. 255. 255. 255. 0. 0. 0. 0. 0. 0. 0. 0. 0. 0. 255. 255.
      255. 255. 255. 0. 0. 0. 0. 0. 0. 255. 255. 255. 255. 255. 255.
      255. 255. 255. 255. 255. 255. 0. 255. 255. 255. 255. 255. 255.
      255. 255. 255. 255. 255. 255. 255. 255. 255. 255. 255. 255. 0. 0.
      0. 0. 0. 0. 0. 255. 255. 255. 255. 255. 0. 0. 0. 0. 0. 0. 0. 0. 0.
      0. 255. 255. 255. 255. 255. 0. 0. 0. 0. 0. 0. 255. 255. 255. 255.
      255. 255. 255. 255. 255. 255. 255. 255. 0. 255. 255. 255. 255.
      255. 255. 255. 255. 255. 255. 255. 255. 255. 255. 255. 255. 255.
      255. 0. 0. 0. 0. 0. 0. 0. 255. 255. 255. 255. 255. 0. 0. 0. 0. 0.
      0. 0. 0. 0. 0. 255. 255. 255. 255. 255. 0. 0. 0. 0. 0. 0. 255.
      255. 255. 255. 255. 255. 255. 255. 255. 255. 255. 255. 0. 255.
      255. 255. 255. 255. 255. 255. 255. 255. 255. 255. 255. 255. 255.
      255. 255. 255. 255. 255. 0. 0. 0. 0. 0. 0. 0. 255. 255. 255. 255.
      0. 0. 0. 0. 0. 0. 0. 0. 0. 0. 255. 255. 255. 255. 255. 0. 0. 0. 0.
      0. 0. 255. 255. 255. 255. 255. 0. 255. 255. 255. 255. 255. 0. 0.
      255. 255. 255. 255. 255. 255. 255. 255. 255. 255. 255. 255. 255.
      255. 255. 255. 255. 255. 255. 255. 0. 0. 0. 0. 0. 0. 255. 255.
      255. 255. 0. 0. 0. 0. 0. 0. 0. 0. 0. 0. 255. 255. 255. 255. 255.
      0. 0. 0. 0. 0. 0. 255. 255. 255. 255. 255. 255. 255. 255. 255.
      255. 255. 0. 0. 255. 255. 255. 255. 255. 255. 255. 255. 255. 255.
      255. 255. 255. 255. 255. 255. 255. 255. 255. 255. 0. 0. 0. 0. 0.
      0. 255. 255. 255. 255. 0. 0. 0. 0. 0. 0. 0. 0. 0. 0. 255. 255.
      255. 255. 255. 0. 0. 0. 0. 0. 0. 255. 255. 255. 255. 255. 0. 255.
      255. 255. 255. 255. 255. 0. 255. 255. 255. 255. 255. 255. 255.
      255. 255. 255. 255. 255. 255. 255. 255. 255. 255. 255. 255. 255.
      255. 0. 0. 0. 0. 0. 255. 255. 255. 255. 0. 0. 0. 0. 0. 0. 0. 0. 0.
      0. 255. 255. 255. 255. 255. 0. 0. 0. 0. 0. 0. 255. 255. 255. 255.
      255. 0. 255. 255. 255. 255. 255. 0. 0. 255. 255. 255. 255. 255.
      255. 255. 255. 255. 255. 255. 255. 255. 255. 255. 255. 255. 255.
      255. 255. 255. 255. 0. 0. 0. 0. 255. 255. 255. 255. 255. 0. 0.
      255. 255. 255. 255. 255. 255. 255. 255. 255. 255. 255. 255. 255.
      0. 0. 0. 0. 0. 255. 255. 255. 255. 255. 0. 255. 255. 255. 255.
      255. 0. 0. 255. 255. 255. 255. 255. 255. 255. 255. 255. 255. 255.
      255. 255. 255. 255. 255. 255. 255. 255. 255. 255. 255. 255. 0. 0.
      255. 255. 255. 255. 255. 255. 255. 255. 255. 255. 255. 255. 255.
      255. 255. 255. 255. 255. 255. 255. 255. 0. 0. 0. 0. 0. 255. 255.
      255. 255. 255. 0. 255. 255. 255. 255. 255. 0. 0. 255. 255. 255.
      255. 255. 255. 255. 255. 255. 255. 255. 255. 255. 255. 255. 255.
      255. 255. 255. 255. 255. 255. 255. 255. 255. 255. 255. 255. 255.
      255. 255. 255. 255. 255. 255. 255. 255. 255. 255. 255. 255. 255.
      255. 255. 255. 255. 0. 0. 0. 0. 0. 255. 255. 255. 255. 255. 0.
      255. 255. 255. 255. 255. 0. 0. 255. 255. 255. 255. 255. 255. 255.
      255. 255. 255. 255. 255. 255. 255. 255. 255. 255. 255. 255. 255.
      255. 255. 255. 255. 255. 255. 255. 255. 255. 255. 255. 255. 255.
      255. 255. 255. 255. 255. 255. 255. 255. 255. 255. 255. 255. 255.
      0. 0. 0. 0. 0. 255. 255. 255. 255. 255. 0. 255. 255. 255. 255.
      255. 0. 0. 255. 255. 255. 255. 255. 255. 255. 255. 255. 255. 255.
      255. 255. 255. 255. 255. 255. 255. 255. 255. 255. 255. 255. 255.
      255. 255. 255. 255. 255. 255. 255. 255. 255. 255. 255. 255. 255.
      255. 255. 255. 255. 255. 255. 255. 255. 255. 0. 0. 0. 0. 0. 255.
      255. 255. 255. 255. 0. 255. 255. 255. 255. 255. 0. 0. 255. 255.
      255. 255. 255. 255. 255. 255. 255. 255. 255. 255. 255. 255. 255.
      255. 255. 255. 255. 255. 255. 255. 255. 255. 255. 255. 255. 255.
      255. 255. 255. 255. 255. 0. 0. 255. 255. 255. 255. 255. 255. 255.
      255. 255. 255. 255. 255. 0. 0. 0. 0. 255. 255. 255. 255. 255. 0.
      255. 255. 255. 255. 255. 0. 0. 255. 255. 255. 255. 255. 255. 255.
      255. 255. 255. 255. 255. 255. 255. 255. 255. 255. 255. 255. 255.
      255. 255. 255. 255. 0. 0. 0. 0. 0. 0. 0. 0. 0. 0. 0. 0. 255. 255.
      255. 255. 255. 255. 255. 255. 255. 255. 255. 255. 0. 0. 0. 255.
      255. 255. 255. 255. 0. 255. 255. 255. 255. 255. 0. 0. 255. 255.
      255. 255. 255. 255. 255. 255. 255. 255. 255. 255. 255. 255. 255.
      255. 255. 255. 255. 255. 255. 255. 255. 255. 0. 0. 0. 0. 0. 0. 0.
      0. 255. 255. 255. 255. 255. 255. 255. 255. 255. 255. 255. 255.
      255. 255. 255. 255. 0. 0. 0. 255. 255. 255. 255. 255. 0. 255. 255.
      255. 255. 255. 0. 0. 255. 255. 255. 255. 255. 255. 255. 255. 255.
      255. 255. 255. 255. 255. 255. 255. 255. 255. 255. 255. 255. 255.
      255. 255. 0. 0. 0. 0. 0. 0. 255. 255. 255. 255. 255. 255. 255.
      255. 255. 255. 255. 255. 255. 255. 255. 255. 255. 255. 0. 0. 0.
      255. 255. 255. 255. 0. 0. 0. 255. 255. 255. 255. 0. 0. 255. 255.
      255. 255. 255. 255. 255. 255. 255. 255. 255. 255. 255. 255. 255.
      255. 255. 255. 255. 255. 255. 255. 255. 0. 0. 0. 0. 0. 255. 255.
      255. 255. 255. 255. 255. 255. 255. 255. 255. 255. 255. 255. 255.
      255. 0. 0. 0. 0. 0. 0. 0. 255. 255. 255. 255. 0. 0. 0. 255. 255.
      255. 0. 0. 0. 255. 255. 255. 255. 255. 255. 255. 255. 255. 255.
      255. 255. 255. 255. 255. 255. 255. 255. 255. 255. 255. 255. 0. 0.
      0. 0. 0. 255. 255. 255. 255. 255. 255. 255. 255. 255. 255. 255.
      255. 255. 255. 255. 0. 0. 0. 0. 0. 0. 0. 0. 0. 255. 255. 255. 255.
      255. 0. 0. 255. 255. 255. 255. 0. 0. 255. 255. 255. 255. 255. 255.
      255. 255. 255. 255. 255. 255. 255. 255. 255. 255. 255. 255. 255.
      255. 255. 0. 0. 0. 0. 0. 255. 255. 255. 255. 0. 255. 255. 255.
      255. 255. 255. 255. 255. 255. 255. 0. 0. 0. 0. 0. 0. 0. 0. 0. 0.
      255. 255. 255. 255. 255. 0. 0. 255. 255. 255. 0. 0. 0. 255. 255.
      255. 255. 255. 255. 255. 255. 255. 255. 255. 255. 255. 255. 255.
      255. 255. 255. 255. 0. 0. 0. 0. 0. 0. 0. 255. 255. 255. 255. 0. 0.
      0. 0. 0. 0. 0. 255. 0. 0. 0. 0. 0. 0. 0. 0. 0. 0. 0. 0. 0. 255.
      255. 255. 255. 0. 0. 0. 0. 255. 0. 0. 0. 0. 255. 255. 255. 255.
      255. 255. 255. 255. 255. 255. 255. 255. 255. 255. 255. 255. 255.
      255. 0. 0. 0. 0. 0. 0. 0. 255. 255. 255. 255. 0. 0. 0. 0. 0. 0. 0.
      0. 0. 255. 255. 255. 0. 0. 0. 0. 255. 255. 255. 255. 0. 0. 255.
      255. 255. 255. 0. 0. 0. 255. 255. 255. 0. 0. 0. 255. 255. 255.
      255. 255. 255. 255. 255. 255. 255. 255. 255. 255. 255. 255. 0. 0.
      0. 0. 0. 0. 0. 0. 0. 255. 255. 255. 255. 0. 0. 0. 0. 0. 0. 0. 0.
      255. 255. 255. 255. 255. 255. 255. 255. 255. 255. 255. 255. 255.
      255. 0. 255. 255. 255. 255. 0. 0. 0. 0. 255. 255. 255. 0. 0. 255.
      255. 255. 255. 255. 255. 255. 255. 255. 255. 255. 255. 255. 255.
      0. 0. 0. 0. 0. 0. 0. 0. 0. 255. 255. 255. 255. 255. 0. 0. 0. 0. 0.
      0. 0. 255. 255. 255. 255. 255. 255. 255. 255. 255. 255. 255. 255.
      255. 255. 255. 255. 0. 255. 255. 255. 0. 0. 0. 0. 0. 255. 0. 0. 0.
      255. 255. 255. 255. 255. 255. 255. 255. 255. 255. 255. 255. 255.
      0. 0. 0. 0. 0. 0. 0. 0. 0. 255. 255. 255. 255. 255. 0. 0. 0. 0. 0.
      0. 0. 0. 255. 255. 255. 255. 255. 255. 255. 255. 255. 255. 255.
      255. 255. 255. 255. 255. 255. 255. 255. 255. 0. 0. 0. 0. 0. 0. 0.
      0. 0. 255. 255. 255. 255. 255. 255. 255. 255. 255. 255. 255. 255.
      0. 0. 0. 0. 0. 0. 0. 0. 0. 0. 255. 255. 255. 255. 0. 0. 0. 0. 0.
      0. 0. 0. 255. 255. 255. 0. 0. 0. 0. 0. 0. 0. 0. 0. 0. 0. 0. 0. 0.
      255. 255. 255. 255. 255. 0. 0. 0. 0. 0. 0. 0. 0. 255. 255. 255.
      255. 255. 255. 255. 255. 255. 255. 255. 255. 255. 0. 0. 0. 0. 0.
      0. 0. 0. 255. 255. 255. 0. 0. 0. 0. 0. 0. 0. 0. 0. 255. 255. 255.
      255. 0. 0. 0. 0. 0. 0. 0. 0. 0. 0. 0. 0. 0. 0. 255. 255. 255. 255.
      255. 0. 0. 0. 0. 0. 0. 0. 0. 255. 255. 255. 255. 255. 255. 255.
      255. 255. 255. 255. 255. 255. 0. 0. 0. 0. 0. 0. 0. 255. 255. 255.
      0. 0. 0. 0. 0. 0. 0. 0. 0. 255. 255. 255. 255. 0. 0. 0. 0. 0. 0.
      0. 0. 0. 0. 0. 0. 0. 0. 0. 0. 255. 255. 255. 0. 0. 0. 0. 0. 255.
      0. 0. 0. 255. 255. 255. 255. 255. 255. 255. 255. 255. 255. 255.
      255. 255. 0. 0. 0. 0. 0. 0. 255. 255. 0. 0. 0. 0. 0. 0. 0. 0. 0.
      0. 255. 255. 255. 0. 0. 0. 0. 0. 0. 0. 0. 0. 0. 0. 0. 0. 0. 0. 0.
      0. 0. 255. 255. 255. 0. 0. 0. 0. 0. 0. 0. 0. 0. 255. 255. 255.
      255. 255. 255. 255. 255. 255. 255. 255. 255. 0. 0. 0. 0. 0. 0. 0.
      255. 0. 0. 0. 0. 0. 0. 0. 0. 0. 255. 255. 255. 255. 0. 0. 0. 0. 0.
      0. 0. 0. 0. 0. 0. 0. 0. 0. 0. 0. 0. 0. 0. 255. 255. 255. 0. 0. 0.
      0. 0. 0. 0. 0. 0. 255. 255. 255. 255. 255. 255. 255. 255. 255.
      255. 255. 0. 0. 0. 0. 0. 0. 0. 0. 0. 0. 0. 0. 0. 0. 0. 0. 0. 255.
      255. 255. 255. 0. 0. 0. 0. 0. 0. 0. 0. 0. 0. 0. 0. 0. 0. 0. 0. 0.
      0. 0. 0. 255. 255. 255. 0. 0. 0. 0. 0. 0. 0. 0. 0. 255. 255. 255.
      255. 255. 255. 255. 255. 255. 255. 0. 0. 0. 0. 0. 0. 0. 0. 0. 0.
      0. 0. 0. 0. 0. 0. 0. 0. 255. 255. 0. 0. 0. 0. 0. 0. 0. 0. 0. 0. 0.
      0. 0. 0. 0. 0. 0. 0. 0. 0. 255. 255. 255. 255. 255. 0. 0. 0. 0. 0.
      0. 0. 0. 0. 255. 255. 255. 255. 255. 255. 255. 255. 255. 255. 0.
      0. 0. 0. 0. 0. 0. 0. 0. 0. 0. 0. 0. 0. 0. 0. 0. 0. 0. 0. 0. 0. 0.
      0. 0. 0. 0. 0. 0. 0. 0. 0. 0. 0. 0. 0. 0. 0. 0. 255. 255. 255.
      255. 255. 255. 0. 0. 0. 0. 0. 0. 0. 0. 0. 255. 255. 255. 255. 255.
      255. 255. 255. 255. 255. 0. 0. 0. 0. 0. 0. 0. 0. 0. 0. 0. 0. 0. 0.
      0. 0. 0. 0. 0. 0. 0. 0. 0. 0. 0. 0. 0. 0. 0. 0. 0. 0. 0. 0. 0. 0.
      0. 0. 0. 255. 255. 255. 255. 255. 255. 0. 0. 0. 0. 0. 0. 0. 0. 0.
      255. 255. 255. 255. 255. 255. 255. 255. 255. 255. 0. 0. 0. 0. 0.
      0. 0. 0. 0. 0. 0. 0. 0. 0. 0. 0. 0. 0. 0. 0. 0. 0. 0. 0. 0. 0. 0.
      0. 0. 0. 0. 0. 0. 0. 0. 0. 0. 255. 255. 255. 255. 255. 255. 255.
      0. 0. 0. 0. 0. 0. 0. 0. 0. 0. 255. 255. 255. 255. 255. 255. 255.
      255. 255. 255. 255. 255. 255. 255. 0. 0. 0. 0. 0. 0. 0. 0. 0. 0.
      0. 0. 0. 0. 0. 0. 0. 0. 0. 0. 0. 0. 0. 0. 0. 0. 0. 0. 0. 0. 0.
      255. 255. 255. 255. 255. 255. 255. 255. 255. 0. 0. 0. 0. 0. 0. 0.
      0. 0. 0. 255. 255. 255. 255. 255. 255. 255. 255. 255. 255. 255.
      255. 255. 255. 0. 0. 0. 0. 0. 0. 0. 0. 0. 0. 0. 0. 0. 0. 0. 0. 0.
      0. 0. 0. 0. 0. 0. 0. 0. 0. 0. 0. 255. 255. 255. 255. 255. 255.
      255. 255. 255. 0. 0. 0. 0. 0. 0. 0. 0. 0. 0. 0. 0. 0. 255. 255.
      255. 255. 255. 255. 255. 255. 255. 255. 255. 255. 255. 255. 0. 0.
      0. 0. 0. 0. 0. 0. 0. 0. 0. 0. 0. 0. 0. 0. 0. 0. 0. 0. 0. 0. 0. 0.
      255. 255. 255. 255. 255. 255. 255. 255. 255. 255. 0. 0. 0. 0. 0.
      0. 0. 0. 0. 0. 0. 0. 0. 0. 0. 0. 0. 255. 255. 255. 255. 255. 255.
      255. 255. 255. 255. 255. 255. 255. 0. 0. 0. 0. 0. 0. 0. 0. 0. 0.
      0. 0. 0. 0. 0. 0. 0. 0. 0. 0. 255. 255. 255. 255. 255. 255. 255.
      255. 255. 255. 0. 0. 0. 0. 0. 0. 0. 0. 0. 0. 0. 0. 0. 0. 0. 0. 0.
      0. 0. 0. 0. 0. 0. 0. 0. 255. 255. 255. 255. 255. 255. 255. 255.
      255. 0. 0. 0. 0. 0. 0. 0. 0. 0. 0. 0. 0. 0. 0. 0. 0. 0. 0. 0. 255.
      255. 255. 255. 255. 255. 0. 0. 0. 0. 0. 0. 0. 0. 0. 0. 0. 0. 0. 0.
      0. 0. 0. 0. 0. 0. 0. 0. 0. 0. 0. 0. 0. 0. 0. 0. 0. 0. 255. 255.
      255. 255. 255. 255. 255. 0. 0. 0. 0. 0. 0. 0. 0. 0. 0. 0. 0. 0. 0.
      0. 0. 0. 0. 255. 255. 255. 255. 255. 255. 0. 0. 0. 0. 0. 0. 0. 0.
      0. 0. 0. 0. 0. 0. 0. 0. 0. 0. 0. 0. 0. 0. 0. 0. 0. 0. 0. 0. 0. 0.
      0. 0. 0. 255. 255. 255. 255. 255. 255. 255. 255. 255. 255. 0. 0.
      0. 0. 0. 0. 0. 0. 0. 0. 0. 0. 0. 0. 0. 255. 255. 255. 255. 0. 0.
      0. 0. 0. 0. 0. 0. 0. 0. 0. 0. 0. 0. 0. 0. 0. 0. 0. 0. 0. 0. 0. 0.
      0. 0. 0. 0. 0. 0. 0. 0. 0. 0. 0. 255. 255. 255. 255. 255. 255.
      255. 255. 255. 255. 255. 255. 255. 0. 0. 0. 0. 0. 0. 0. 0. 0. 0.
      0. 0. 0. 0. 0. 0. 0. 0. 0. 0. 0. 0. 0. 0. 0. 0. 0. 0. 0. 0. 0. 0.
      0. 0. 0. 0. 0. 0. 0. 0. 0. 0. 0. 0. 0. 0. 0. 0. 0. 0. 0. 255. 255.
      255. 255. 255. 255. 255. 255. 255. 255. 255. 255. 255. 0. 0. 0. 0.
      0. 0. 0. 0. 0. 0. 0. 0. 0. 0. 0. 0. 0. 0. 0. 0. 0. 0. 0. 0. 0. 0.
      0. 0. 0. 0. 0. 0. 0. 0. 0. 0. 0. 0. 0. 0. 0. 0. 0. 0. 0. 0. 0. 0.
      0. 0. 255. 255. 255. 255. 255. 255. 255. 255. 255. 255. 255. 255.
      255. 255. 255. 0. 0. 0. 0. 0. 0. 0. 0. 0. 0. 0. 0. 0. 0. 0. 0. 0.
      0. 0. 0. 0. 0. 0. 0. 0. 0. 0. 0. 0. 0. 0. 0. 0. 0. 0. 0. 0. 0. 0.
      0. 0. 0. 0. 0. 0. 0. 0. 0. 0. 255. 255. 255. 255. 255. 255. 255.
      255. 255. 255. 255. 255. 255. 255. 255. 255. 255. 255. 255. 255.
      255. 255. 0. 0. 0. 0. 0. 0. 0. 0. 0. 0. 0. 0. 0. 0. 0. 0. 0. 0. 0.
      0. 0. 0. 0. 0. 0. 0. 0. 0. 0. 0. 0. 0. 0. 0. 0. 0. 0. 0. 0. 0. 0.
      0. 255. 255. 255. 255. 255. 255. 255. 255. 255. 255. 255. 255.
      255. 255. 255. 255. 255. 255. 255. 255. 255. 255. 0. 0. 0. 0. 0.
      0. 0. 0. 0. 0. 0. 0. 0. 0. 0. 0. 0. 0. 0. 0. 0. 0. 0. 0. 0. 0. 0.
      0. 0. 0. 0. 0. 0. 0. 0. 0. 0. 0. 0. 0. 0. 0. 255. 255. 255. 255.
      255. 255. 255. 255. 255. 255. 255. 255. 255. 255. 255. 255. 255.
      255. 255. 255. 255. 255. 0. 0. 0. 0. 0. 0. 0. 0. 0. 0. 0. 0. 0. 0.
      0. 0. 0. 0. 0. 0. 0. 0. 0. 0. 0. 0. 0. 0. 0. 0. 0. 0. 0. 0. 0. 0.
      0. 0. 0. 0. 0. 0. 255. 255. 255. 255. 255. 255. 255. 255. 255.
      255. 255. 255. 255. 255. 255. 255. 255. 255. 255. 255. 255. 255.
      0. 0. 0. 0. 0. 0. 0. 0. 0. 0. 0. 0. 0. 0. 0. 0. 0. 0. 0. 0. 0.
      255. 255. 0. 0. 0. 0. 0. 0. 0. 0. 0. 0. 0. 0. 0. 0. 0. 0. 0. 0. 0.
      255. 255. 255. 255. 255. 255. 255. 255. 255. 255. 255. 255. 255.
      255. 255. 255. 255. 255. 255. 255. 255. 255. 0. 0. 0. 0. 0. 0. 0.
      0. 0. 0. 0. 0. 0. 0. 0. 0. 0. 0. 0. 0. 255. 255. 255. 255. 0. 0.
      0. 0. 0. 0. 0. 0. 0. 0. 0. 0. 0. 0. 0. 0. 0. 0. 255. 255. 255.
      255. 255. 255. 255. 255. 255. 255. 255. 255. 255. 255. 255. 255.
      255. 255. 255. 255. 255. 255. 255. 0. 0. 0. 0. 0. 0. 0. 0. 0. 0.
      0. 0. 0. 0. 0. 0. 0. 255. 255. 255. 255. 255. 255. 255. 0. 0. 0.
      0. 0. 0. 0. 0. 0. 0. 0. 0. 0. 0. 0. 0. 0. 255. 255. 255. 255. 255.
      255. 255. 255. 255. 255. 255. 255. 255. 255. 255. 255. 255. 255.
      255. 255. 255. 255. 255. 0. 0. 0. 0. 0. 0. 0. 0. 0. 0. 0. 0. 0. 0.
      255. 255. 255. 255. 255. 255. 255. 255. 255. 255. 255. 0. 0. 0. 0.
      0. 0. 0. 0. 0. 0. 0. 0. 0. 0. 0. 0. 255. 255. 255. 255. 255. 255.
      255. 255. 255. 255. 255. 255. 255. 255. 255. 255. 255. 255. 255.
      255. 255. 255. 255. 255. 255. 255. 255. 255. 255. 255. 255. 255.
      255. 255. 255. 255. 255. 255. 255. 255. 255. 255. 255. 255. 255.
      255. 255. 255. 0. 0. 0. 0. 0. 0. 0. 0. 0. 0. 0. 0. 0. 0. 0. 0.
      255. 255. 255. 255. 255. 255. 255. 255. 255. 255. 255. 255. 255.
      255. 255. 255. 255. 255. 255. 255. 255. 255. 255. 255. 255. 255.
      255. 255. 255. 255. 255. 255. 255. 255. 255. 255. 255. 255. 255.
      255. 255. 255. 255. 255. 255. 255. 255. 255. 255. 0. 0. 0. 0. 0.
      0. 0. 0. 0. 0. 0. 0. 0. 0. 0. 255. 255. 255. 255. 255. 255. 255.
      255. 255. 255. 255. 255. 255. 255. 255. 255. 255. 255. 255. 255.
      255. 255. 255. 255. 255. 255. 255. 255. 255. 255. 255. 255. 255.
      255. 255. 255. 255. 255. 255. 255. 255. 255. 255. 255. 255. 255.
      255. 255. 255. 0. 0. 0. 0. 0. 0. 0. 0. 0. 0. 0. 0. 0. 0. 0. 255.
      255. 255. 255. 255. 255. 255. 255. 255. 255. 255. 255. 255. 255.
      255. 255. 255. 255. 255. 255. 255. 255. 255. 255. 255. 255. 255.
      255. 255. 255. 255. 255. 255. 255. 255. 255. 255. 255. 255. 255.
      255. 255. 255. 255. 255. 255. 255. 255. 255. 0. 0. 0. 0. 0. 0. 0.
      0. 0. 0. 0. 0. 0. 0. 0. 255. 255. 255. 255. 255. 255. 255. 255.
      255. 255. 255. 255. 255. 255. 255. 255. 255. 255. 255. 255. 255.
      255. 255. 255. 255. 255. 255. 255. 255. 255. 255. 255. 255. 255.
      255. 255. 255. 255. 255. 255. 255. 255. 255. 255. 255. 255. 255.
      255. 255. 0. 0. 0. 0. 0. 0. 0. 0. 0. 0. 0. 0. 0. 0. 0. 255. 255.
      255. 255. 255. 255. 255. 255. 255. 255. 255. 255. 255. 255. 255.
      255. 255. 255. 255. 255. 255. 255. 255. 255. 255. 255. 255. 255.
      255. 255. 255. 255. 255. 255. 255. 255. 255. 255. 255. 255. 255.
      255. 255. 255. 255. 255. 255. 255. 0. 0. 0. 0. 0. 0. 0. 0. 0. 0.
      0. 0. 0. 0. 0. 0. 255. 255. 255. 255. 255. 255. 255. 255. 255.
      255. 255. 255. 255. 255. 255. 255. 255. 255. 255. 255. 255. 255.
      255. 255. 255. 255. 255. 255. 255. 255. 255. 255. 255. 255. 255.
      255. 255. 255. 255. 255. 255. 255. 255. 255. 255. 255. 0. 0. 0. 0.
      0. 0. 0. 0. 0. 0. 0. 0.</_>
    <_>
      255. 255. 255. 255. 255. 255. 255. 255. 255. 255. 255. 255. 255.
      255. 255. 255. 255. 255. 255. 255. 255. 255. 255. 255. 255. 255.
      255. 255. 255. 255. 255. 255. 255. 255. 255. 255. 255. 255. 255.
      255. 255. 255. 255. 255. 255. 255. 0. 0. 0. 255. 255. 255. 255.
      255. 255. 255. 255. 255. 255. 255. 255. 255. 255. 255. 255. 255.
      255. 255. 255. 255. 255. 255. 255. 255. 255. 255. 255. 255. 255.
      255. 255. 255. 255. 255. 255. 255. 255. 255. 255. 255. 255. 255.
      255. 255. 255. 255. 255. 255. 255. 255. 255. 255. 255. 255. 255.
      255. 255. 255. 255. 255. 0. 0. 0. 255. 255. 255. 255. 255. 255.
      255. 255. 255. 255. 255. 255. 255. 255. 255. 255. 255. 255. 255.
      255. 255. 255. 255. 255. 255. 255. 255. 255. 255. 255. 255. 255.
      255. 255. 255. 255. 255. 255. 255. 255. 255. 255. 255. 255. 255.
      255. 255. 255. 255. 255. 255. 255. 255. 255. 255. 255. 255. 255.
      255. 255. 255. 0. 0. 0. 255. 255. 255. 255. 255. 255. 255. 255.
      255. 255. 255. 255. 255. 255. 255. 255. 255. 255. 255. 255. 255.
      255. 255. 255. 255. 255. 255. 255. 255. 255. 255. 255. 255. 255.
      255. 255. 255. 255. 255. 255. 255. 255. 255. 255. 255. 255. 255.
      255. 255. 255. 255. 255. 255. 255. 255. 255. 255. 255. 255. 255.
      255. 0. 0. 0. 255. 255. 255. 255. 255. 255. 255. 255. 255. 255.
      255. 255. 255. 255. 255. 255. 255. 255. 255. 255. 255. 255. 255.
      255. 255. 255. 255. 255. 255. 255. 255. 255. 255. 255. 255. 255.
      255. 255. 255. 255. 255. 255. 255. 255. 255. 255. 255. 255. 255.
      255. 255. 255. 255. 255. 255. 255. 255. 255. 255. 255. 255. 0. 0.
      0. 255. 255. 255. 255. 255. 255. 255. 255. 255. 255. 255. 255.
      255. 255. 255. 255. 255. 255. 255. 255. 255. 255. 255. 255. 255.
      255. 255. 255. 255. 255. 255. 255. 255. 255. 255. 255. 255. 255.
      255. 255. 255. 255. 255. 255. 255. 255. 255. 255. 255. 255. 255.
      255. 255. 255. 255. 255. 255. 255. 255. 255. 255. 0. 0. 0. 255.
      255. 255. 255. 255. 255. 255. 255. 255. 255. 255. 255. 255. 255.
      255. 255. 255. 255. 255. 255. 255. 255. 255. 255. 255. 255. 255.
      255. 255. 255. 255. 255. 255. 255. 255. 255. 255. 255. 255. 255.
      255. 255. 255. 255. 255. 255. 255. 255. 255. 255. 255. 255. 255.
      255. 255. 255. 255. 255. 255. 255. 255. 0. 0. 0. 0. 255. 255. 255.
      255. 255. 255. 255. 255. 255. 255. 255. 255. 255. 255. 255. 255.
      255. 255. 255. 255. 255. 255. 255. 255. 255. 255. 255. 255. 255.
      255. 255. 255. 255. 255. 255. 255. 255. 255. 255. 255. 255. 255.
      255. 255. 255. 255. 255. 255. 255. 255. 255. 255. 255. 255. 255.
      255. 255. 255. 255. 255. 0. 0. 0. 0. 255. 255. 255. 255. 255. 255.
      255. 255. 255. 255. 255. 255. 255. 255. 255. 255. 255. 255. 255.
      255. 255. 255. 255. 255. 255. 255. 255. 255. 255. 255. 255. 255.
      255. 255. 255. 255. 255. 255. 255. 255. 255. 255. 255. 255. 255.
      255. 255. 255. 255. 255. 255. 255. 255. 255. 255. 255. 255. 255.
      255. 255. 0. 0. 0. 0. 255. 255. 255. 255. 255. 255. 255. 255. 255.
      255. 255. 255. 255. 255. 255. 255. 255. 255. 255. 0. 255. 255.
      255. 255. 255. 255. 255. 255. 255. 255. 255. 255. 255. 255. 255.
      255. 255. 255. 255. 255. 255. 255. 255. 255. 255. 255. 255. 255.
      255. 255. 255. 255. 255. 255. 255. 255. 255. 255. 255. 255. 0. 0.
      0. 0. 255. 255. 255. 255. 255. 255. 255. 255. 255. 255. 255. 255.
      255. 255. 255. 255. 255. 255. 255. 0. 0. 255. 255. 255. 255. 255.
      255. 255. 255. 255. 255. 255. 255. 255. 255. 255. 255. 255. 255.
      255. 255. 255. 255. 255. 255. 255. 255. 255. 255. 255. 255. 255.
      255. 255. 255. 255. 255. 255. 255. 255. 0. 0. 0. 0. 255. 255. 255.
      255. 255. 255. 255. 255. 255. 255. 255. 255. 255. 255. 255. 255.
      255. 255. 255. 0. 0. 0. 0. 255. 255. 255. 255. 255. 255. 255. 255.
      255. 255. 255. 255. 255. 255. 255. 255. 255. 255. 255. 255. 255.
      255. 255. 255. 255. 255. 255. 255. 255. 255. 255. 255. 255. 255.
      255. 255. 255. 0. 0. 0. 0. 255. 255. 255. 255. 255. 255. 255. 255.
      255. 255. 255. 255. 255. 255. 255. 255. 255. 255. 255. 0. 0. 0. 0.
      0. 255. 255. 255. 255. 255. 255. 255. 255. 255. 255. 255. 255.
      255. 255. 255. 255. 255. 255. 255. 255. 255. 255. 255. 255. 255.
      255. 255. 255. 255. 255. 255. 255. 255. 255. 255. 255. 0. 0. 0. 0.
      255. 255. 255. 255. 255. 255. 255. 255. 255. 255. 255. 255. 255.
      255. 255. 255. 255. 255. 255. 0. 0. 0. 0. 0. 0. 0. 255. 255. 255.
      255. 255. 255. 255. 255. 255. 255. 255. 255. 255. 255. 255. 255.
      255. 255. 255. 255. 255. 255. 255. 255. 255. 255. 255. 255. 255.
      255. 255. 255. 255. 255. 0. 0. 0. 0. 0. 255. 255. 255. 255. 255.
      255. 255. 255. 255. 255. 255. 255. 255. 255. 255. 255. 255. 255.
      0. 0. 0. 0. 0. 0. 0. 0. 0. 255. 255. 255. 255. 255. 255. 255. 255.
      255. 255. 255. 255. 255. 255. 255. 255. 255. 255. 255. 255. 255.
      255. 255. 255. 255. 255. 255. 255. 255. 255. 255. 255. 0. 0. 0. 0.
      0. 255. 255. 255. 255. 255. 255. 255. 255. 255. 255. 255. 255.
      255. 255. 255. 255. 255. 255. 0. 0. 0. 0. 0. 0. 0. 0. 0. 0. 0.
      255. 255. 255. 255. 255. 255. 255. 255. 255. 255. 255. 255. 255.
      255. 255. 255. 255. 255. 255. 255. 255. 255. 255. 255. 255. 255.
      255. 255. 255. 255. 0. 0. 0. 0. 0. 255. 255. 255. 255. 255. 255.
      255. 255. 255. 255. 255. 255. 255. 255. 255. 255. 255. 255. 0. 0.
      0. 0. 0. 0. 0. 0. 0. 0. 0. 0. 0. 255. 255. 255. 255. 255. 255.
      255. 255. 255. 255. 255. 255. 255. 255. 255. 255. 255. 255. 255.
      255. 255. 255. 255. 255. 255. 255. 255. 255. 0. 0. 0. 0. 0. 255.
      255. 255. 255. 255. 255. 255. 255. 255. 255. 255. 255. 255. 255.
      255. 255. 255. 255. 0. 0. 0. 0. 0. 0. 0. 0. 0. 0. 0. 0. 0. 0. 0.
      255. 255. 255. 255. 255. 255. 255. 255. 255. 255. 255. 255. 255.
      255. 255. 255. 255. 255. 255. 255. 255. 255. 255. 255. 255. 255.
      0. 0. 0. 0. 0. 255. 255. 255. 255. 255. 255. 255. 255. 255. 255.
      255. 255. 255. 255. 255. 255. 255. 255. 0. 0. 0. 0. 0. 0. 0. 0. 0.
      0. 0. 0. 0. 0. 0. 0. 0. 0. 255. 255. 255. 255. 255. 255. 255. 255.
      255. 255. 255. 255. 255. 255. 255. 255. 255. 255. 255. 255. 255.
      255. 255. 0. 0. 0. 0. 0. 255. 255. 255. 255. 255. 255. 255. 255.
      255. 255. 255. 255. 255. 255. 255. 255. 255. 255. 255. 0. 0. 0. 0.
      0. 0. 0. 0. 0. 0. 0. 0. 0. 0. 0. 0. 0. 0. 0. 255. 255. 255. 255.
      255. 255. 255. 255. 255. 255. 255. 255. 255. 255. 255. 255. 255.
      255. 255. 255. 255. 0. 0. 0. 0. 0. 255. 255. 255. 255. 255. 255.
      255. 255. 255. 255. 255. 255. 255. 255. 255. 255. 255. 255. 255.
      0. 0. 0. 0. 0. 0. 0. 0. 0. 0. 0. 0. 0. 0. 0. 0. 0. 0. 0. 0. 255.
      255. 255. 255. 255. 255. 255. 255. 255. 255. 255. 255. 255. 255.
      255. 255. 255. 255. 255. 255. 0. 0. 0. 0. 0. 0. 255. 255. 255.
      255. 255. 255. 255. 255. 255. 255. 255. 255. 255. 255. 255. 255.
      255. 255. 0. 0. 0. 0. 0. 0. 0. 0. 0. 0. 0. 0. 0. 0. 0. 0. 0. 0. 0.
      0. 0. 0. 0. 255. 255. 255. 255. 255. 255. 255. 255. 255. 255. 255.
      255. 255. 255. 255. 255. 255. 0. 0. 0. 0. 0. 0. 255. 255. 255.
      255. 255. 255. 255. 255. 255. 255. 255. 255. 255. 255. 255. 255.
      255. 255. 0. 0. 0. 0. 0. 0. 0. 0. 0. 0. 0. 0. 0. 0. 0. 0. 0. 0. 0.
      0. 0. 0. 0. 0. 0. 255. 255. 255. 255. 255. 255. 255. 255. 255.
      255. 255. 255. 255. 255. 255. 0. 0. 0. 0. 0. 0. 255. 255. 255.
      255. 255. 255. 255. 255. 255. 255. 255. 255. 255. 255. 255. 255.
      255. 255. 0. 0. 0. 0. 0. 0. 0. 0. 0. 0. 0. 0. 0. 0. 0. 0. 0. 0. 0.
      0. 0. 0. 0. 0. 0. 0. 0. 255. 255. 255. 255. 255. 255. 255. 255.
      255. 255. 255. 255. 255. 0. 0. 0. 0. 0. 0. 255. 255. 255. 255.
      255. 255. 255. 255. 255. 255. 255. 255. 255. 255. 255. 255. 255.
      255. 0. 0. 0. 0. 0. 0. 0. 0. 0. 0. 0. 0. 0. 0. 0. 0. 0. 0. 0. 0.
      0. 0. 0. 0. 0. 0. 0. 0. 0. 255. 255. 255. 255. 255. 255. 255. 255.
      255. 255. 255. 0. 0. 0. 0. 0. 0. 255. 255. 255. 255. 255. 255.
      255. 255. 255. 255. 255. 255. 255. 255. 255. 255. 255. 255. 0. 0.
      0. 0. 0. 0. 0. 0. 0. 0. 0. 0. 0. 0. 0. 0. 0. 0. 0. 0. 0. 0. 0. 0.
      0. 0. 0. 0. 0. 0. 0. 255. 255. 255. 255. 255. 255. 255. 255. 255.
      0. 0. 0. 0. 0. 0. 255. 255. 255. 255. 255. 255. 255. 255. 255.
      255. 255. 255. 255. 255. 255. 255. 255. 255. 0. 0. 0. 0. 0. 0. 0.
      0. 0. 0. 0. 0. 0. 0. 0. 0. 0. 0. 0. 0. 0. 0. 0. 0. 0. 0. 0. 0. 0.
      0. 0. 0. 0. 255. 255. 255. 255. 255. 255. 255. 0. 0. 0. 0. 0. 0.
      0. 255. 255. 255. 255. 255. 255. 255. 255. 255. 255. 255. 255.
      255. 255. 255. 255. 255. 0. 0. 0. 0. 0. 0. 0. 0. 0. 0. 0. 0. 0. 0.
      0. 0. 0. 0. 0. 0. 0. 0. 0. 0. 0. 0. 0. 0. 0. 0. 0. 0. 0. 0. 0.
      255. 255. 255. 255. 255. 0. 0. 0. 0. 0. 0. 0. 255. 255. 255. 255.
      255. 255. 255. 255. 255. 255. 255. 255. 255. 255. 255. 255. 255.
      0. 0. 0. 0. 0. 0. 0. 0. 0. 0. 0. 0. 0. 0. 0. 0. 0. 0. 0. 0. 0. 0.
      0. 0. 0. 0. 0. 0. 0. 0. 0. 0. 0. 0. 0. 0. 255. 255. 255. 255. 0.
      0. 0. 0. 0. 0. 0. 255. 255. 255. 255. 255. 255. 255. 255. 255.
      255. 255. 255. 255. 255. 255. 255. 255. 0. 0. 0. 0. 0. 0. 0. 0. 0.
      0. 0. 0. 0. 0. 0. 0. 0. 0. 0. 0. 0. 0. 0. 0. 0. 0. 0. 0. 0. 0. 0.
      0. 0. 0. 0. 0. 0. 255. 255. 255. 0. 0. 0. 0. 0. 0. 0. 255. 255.
      255. 255. 255. 255. 255. 255. 255. 255. 255. 255. 255. 255. 255.
      255. 255. 0. 0. 0. 0. 0. 0. 0. 0. 0. 0. 0. 0. 0. 0. 0. 0. 0. 0. 0.
      0. 0. 0. 0. 0. 0. 0. 0. 0. 0. 0. 0. 0. 0. 0. 0. 0. 0. 0. 255. 255.
      0. 0. 0. 0. 0. 0. 0. 255. 255. 255. 255. 255. 255. 255. 255. 255.
      255. 255. 255. 255. 255. 255. 255. 255. 0. 0. 0. 0. 0. 0. 0. 0. 0.
      0. 0. 0. 0. 0. 0. 0. 0. 0. 0. 0. 0. 0. 0. 0. 0. 0. 0. 0. 0. 0. 0.
      0. 0. 0. 0. 0. 0. 0. 255. 255. 0. 0. 0. 0. 0. 0. 0. 255. 255. 255.
      255. 255. 255. 255. 255. 255. 255. 255. 255. 255. 255. 255. 255.
      255. 0. 0. 0. 0. 0. 0. 0. 0. 0. 0. 0. 0. 0. 0. 0. 0. 0. 0. 0. 0.
      0. 0. 0. 0. 0. 0. 0. 0. 0. 0. 0. 0. 0. 0. 0. 0. 0. 0. 0. 0. 0. 0.
      0. 0. 0. 0. 0. 0. 255. 255. 255. 255. 255. 255. 255. 255. 255.
      255. 255. 255. 255. 255. 255. 255. 0. 0. 0. 0. 0. 0. 0. 0. 0. 0.
      0. 0. 0. 0. 0. 0. 0. 0. 0. 0. 0. 0. 0. 0. 0. 0. 0. 0. 0. 0. 0. 0.
      0. 0. 0. 0. 0. 0. 0. 0. 0. 0. 0. 0. 0. 0. 0. 0. 255. 255. 255.
      255. 255. 255. 255. 255. 255. 255. 255. 255. 255. 255. 255. 255.
      0. 0. 0. 0. 0. 0. 0. 0. 0. 0. 0. 0. 0. 0. 0. 0. 0. 0. 0. 0. 0. 0.
      0. 0. 0. 0. 0. 0. 0. 0. 0. 0. 0. 0. 0. 0. 0. 0. 0. 0. 0. 0. 0. 0.
      0. 0. 0. 0. 255. 255. 255. 255. 255. 255. 255. 255. 255. 255. 255.
      255. 255. 255. 255. 255. 0. 0. 0. 0. 0. 0. 0. 0. 0. 0. 0. 0. 0. 0.
      0. 0. 0. 0. 0. 0. 0. 0. 0. 0. 0. 0. 0. 0. 0. 0. 0. 0. 0. 0. 0. 0.
      0. 0. 0. 0. 0. 0. 0. 0. 0. 0. 0. 0. 255. 255. 255. 255. 255. 255.
      255. 255. 255. 255. 255. 255. 255. 255. 255. 255. 0. 0. 0. 0. 0.
      0. 0. 0. 0. 0. 0. 0. 0. 0. 0. 0. 0. 0. 0. 0. 0. 0. 0. 0. 0. 0. 0.
      0. 0. 0. 0. 0. 0. 0. 0. 0. 0. 0. 0. 0. 0. 0. 0. 0. 0. 0. 0. 0.
      255. 255. 255. 255. 255. 255. 255. 255. 255. 255. 255. 255. 255.
